10845 13952
40.798040 -73.960040
40.798640 -73.961470
40.785590 -73.982010
40.785020 -73.980670
40.784550 -73.979590
40.784490 -73.979400
40.783820 -73.977820
40.782630 -73.974980
40.788510 -73.981070
40.787560 -73.978820
40.787070 -73.977690
40.787000 -73.977520
40.786360 -73.975970
40.785170 -73.973130
40.783970 -73.970320
40.726540 -73.975310
40.725920 -73.975780
40.725320 -73.976210
40.812600 -73.956810
40.813750 -73.959620
40.813830 -73.959810
40.814190 -73.960680
40.732840 -73.995910
40.734140 -73.999010
40.703310 -74.007760
40.703810 -74.008320
40.703880 -74.008400
40.704210 -74.008780
40.704070 -74.008980
40.703750 -74.008610
40.703690 -74.008540
40.703180 -74.007980
40.770470 -73.983850
40.769790 -73.982250
40.769670 -73.981990
40.769270 -73.981020
40.771320 -73.985880
40.771660 -73.986690
40.787220 -73.967920
40.788420 -73.970760
40.789610 -73.973600
40.790180 -73.974950
40.790250 -73.975130
40.790810 -73.976440
40.791760 -73.978680
40.711520 -74.015820
40.711130 -74.014760
40.711080 -74.014660
40.710960 -74.014480
40.801780 -73.933650
40.801830 -73.933710
40.801900 -73.933760
40.801970 -73.933790
40.802040 -73.933800
40.802080 -73.933800
40.797520 -73.929170
40.797790 -73.929190
40.798030 -73.929210
40.798390 -73.929250
40.799240 -73.929320
40.799520 -73.929380
40.799710 -73.929490
40.799860 -73.929620
40.799970 -73.929760
40.737410 -73.974360
40.737810 -73.973910
40.785400 -73.983680
40.785310 -73.983590
40.785270 -73.983540
40.785190 -73.983500
40.785130 -73.983480
40.785070 -73.983480
40.785030 -73.983480
40.784990 -73.983500
40.784950 -73.983530
40.784910 -73.983580
40.785030 -73.982780
40.785210 -73.982900
40.785320 -73.982940
40.785400 -73.982960
40.785480 -73.982980
40.785600 -73.983000
40.785770 -73.983010
40.786260 -73.983020
40.786440 -73.983020
40.786770 -73.982980
40.787150 -73.982910
40.787610 -73.982800
40.788230 -73.982650
40.845670 -73.931450
40.845520 -73.931410
40.845390 -73.931420
40.845240 -73.931490
40.845150 -73.931650
40.845090 -73.931860
40.845020 -73.932060
40.844930 -73.932250
40.844790 -73.932410
40.844330 -73.932790
40.844180 -73.932950
40.844100 -73.933190
40.844120 -73.933410
40.844240 -73.933700
40.799840 -73.926430
40.801040 -73.929270
40.802140 -73.931300
40.802730 -73.932750
40.713250 -73.977580
40.713080 -73.977570
40.712440 -73.977780
40.708740 -73.998190
40.708670 -73.998510
40.708530 -73.998880
40.708490 -73.999020
40.708480 -73.999200
40.708500 -73.999340
40.708560 -73.999520
40.708620 -73.999610
40.708690 -73.999680
40.708910 -73.999820
40.709020 -73.999890
40.785840 -73.983710
40.785940 -73.983560
40.785960 -73.983500
40.785980 -73.983460
40.785980 -73.983410
40.785980 -73.983370
40.785980 -73.983320
40.785970 -73.983270
40.785950 -73.983230
40.785930 -73.983190
40.785910 -73.983150
40.785880 -73.983130
40.785840 -73.983110
40.785790 -73.983090
40.785760 -73.983080
40.785710 -73.983080
40.785680 -73.983080
40.785630 -73.983080
40.785590 -73.983090
40.785540 -73.983100
40.785500 -73.983130
40.785470 -73.983150
40.785440 -73.983180
40.785420 -73.983210
40.785400 -73.983240
40.785390 -73.983280
40.785380 -73.983340
40.785380 -73.983400
40.723740 -74.006110
40.723780 -74.006250
40.723820 -74.006370
40.723890 -74.006510
40.723960 -74.006640
40.724050 -74.006760
40.724160 -74.006860
40.724250 -74.006930
40.724360 -74.006990
40.724430 -74.007020
40.711600 -74.003660
40.712060 -74.004120
40.757120 -73.997090
40.757110 -73.996870
40.757090 -73.996750
40.757070 -73.996620
40.757040 -73.996530
40.757020 -73.996440
40.756990 -73.996340
40.756890 -73.996080
40.756820 -73.995910
40.756800 -73.995840
40.756790 -73.995760
40.756790 -73.995690
40.756790 -73.995610
40.756810 -73.995530
40.756840 -73.995470
40.756870 -73.995420
40.756910 -73.995380
40.756970 -73.995330
40.757090 -73.995240
40.740300 -73.973150
40.740160 -73.973160
40.739880 -73.973190
40.739630 -73.973240
40.739440 -73.973290
40.739230 -73.973380
40.739020 -73.973470
40.738800 -73.973600
40.738660 -73.973690
40.738360 -73.973800
40.759040 -73.998090
40.758970 -73.998000
40.758930 -73.997960
40.758870 -73.997950
40.758830 -73.997950
40.758790 -73.997990
40.758760 -73.998040
40.758750 -73.998120
40.758750 -73.998200
40.758760 -73.998290
40.758770 -73.998380
40.758780 -73.998640
40.758820 -73.998920
40.759380 -73.996950
40.758830 -73.997590
40.782440 -73.944320
40.782640 -73.944170
40.782760 -73.943990
40.782850 -73.943780
40.794360 -73.931060
40.794340 -73.931290
40.794340 -73.931430
40.794380 -73.931650
40.779470 -73.973570
40.779280 -73.973300
40.723380 -74.007750
40.722580 -74.006660
40.722520 -74.006600
40.722460 -74.006560
40.722400 -74.006520
40.722340 -74.006500
40.722290 -74.006500
40.722220 -74.006500
40.722160 -74.006500
40.722080 -74.006510
40.722020 -74.006530
40.721940 -74.006560
40.721910 -74.006580
40.721860 -74.006610
40.721820 -74.006650
40.721780 -74.006680
40.721750 -74.006720
40.721720 -74.006760
40.721690 -74.006820
40.721670 -74.006860
40.721640 -74.006960
40.721630 -74.007020
40.721620 -74.007160
40.721620 -74.007290
40.721620 -74.007380
40.721610 -74.007490
40.721600 -74.007570
40.721600 -74.007640
40.721590 -74.007690
40.721560 -74.007770
40.721520 -74.007830
40.721470 -74.007890
40.721420 -74.007940
40.721350 -74.007980
40.721270 -74.008010
40.721190 -74.008020
40.721120 -74.008020
40.721040 -74.007990
40.720980 -74.007940
40.720930 -74.007880
40.720900 -74.007830
40.720840 -74.007740
40.720830 -74.007690
40.720810 -74.007630
40.720800 -74.007550
40.720790 -74.007490
40.720790 -74.007380
40.720810 -74.007300
40.720830 -74.007220
40.720860 -74.007160
40.720900 -74.007090
40.720950 -74.007040
40.721010 -74.007010
40.721070 -74.006970
40.721150 -74.006940
40.721220 -74.006920
40.791670 -73.964700
40.791600 -73.964510
40.791580 -73.964440
40.791570 -73.964380
40.791560 -73.964290
40.791560 -73.964200
40.791560 -73.964110
40.791570 -73.964030
40.791640 -73.963700
40.791710 -73.963360
40.791730 -73.963210
40.791740 -73.963130
40.791740 -73.963060
40.791740 -73.962980
40.791730 -73.962910
40.791720 -73.962860
40.791710 -73.962810
40.779300 -73.988650
40.780550 -73.987520
40.780700 -73.987330
40.780770 -73.987160
40.780780 -73.987020
40.780710 -73.986790
40.708260 -74.015460
40.707710 -74.015640
40.707550 -74.015680
40.707420 -74.015680
40.707290 -74.015570
40.707220 -74.015460
40.707150 -74.015280
40.681850 -74.005500
40.683090 -74.006260
40.683750 -74.006590
40.684440 -74.006880
40.685050 -74.007080
40.685780 -74.007450
40.686030 -74.007560
40.686660 -74.007990
40.690040 -74.011000
40.691420 -74.011840
40.700290 -74.015380
40.703710 -74.015440
40.704680 -74.015240
40.705240 -74.015050
40.814460 -73.935370
40.814770 -73.936150
40.720920 -74.007960
40.720870 -74.007960
40.720820 -74.007970
40.720770 -74.008010
40.720740 -74.008050
40.720720 -74.008110
40.720700 -74.008190
40.720700 -74.008250
40.720690 -74.008320
40.720680 -74.008370
40.720660 -74.008420
40.720610 -74.008470
40.720840 -74.007770
40.720800 -74.007720
40.720760 -74.007660
40.720730 -74.007600
40.720690 -74.007520
40.720460 -74.006960
40.723700 -74.007910
40.723850 -74.007710
40.723880 -74.007680
40.724380 -74.007110
40.724490 -74.007020
40.820280 -73.959530
40.820740 -73.959120
40.820810 -73.959020
40.820930 -73.958740
40.820990 -73.958650
40.821110 -73.958560
40.818020 -73.961790
40.816670 -73.963150
40.816510 -73.963330
40.816390 -73.963430
40.816190 -73.963580
40.816060 -73.963690
40.815880 -73.963840
40.815730 -73.963950
40.815630 -73.964010
40.815510 -73.964060
40.806750 -73.934300
40.806670 -73.934500
40.784610 -73.969850
40.784540 -73.969670
40.784470 -73.969530
40.784370 -73.969380
40.784310 -73.969320
40.784230 -73.969260
40.784120 -73.969200
40.784060 -73.969170
40.783990 -73.969150
40.783760 -73.969120
40.783550 -73.969120
40.782590 -73.969380
40.724400 -74.006010
40.724340 -74.006110
40.724300 -74.006190
40.724270 -74.006260
40.724260 -74.006290
40.724240 -74.006360
40.724230 -74.006490
40.724230 -74.006590
40.724240 -74.006690
40.724270 -74.006800
40.724320 -74.006890
40.724370 -74.006970
40.769850 -73.944460
40.769750 -73.944480
40.769340 -73.943830
40.757060 -73.996860
40.757030 -73.996750
40.756990 -73.996610
40.756960 -73.996500
40.756920 -73.996400
40.756760 -73.996030
40.810550 -73.967190
40.812610 -73.965470
40.813310 -73.964860
40.813870 -73.964400
40.814610 -73.963840
40.815860 -73.962990
40.816430 -73.962530
40.816920 -73.962030
40.817280 -73.961590
40.817630 -73.960970
40.792550 -73.954620
40.792530 -73.954390
40.792520 -73.954350
40.792510 -73.954310
40.792500 -73.954270
40.792490 -73.954230
40.792470 -73.954180
40.792450 -73.954130
40.792420 -73.954080
40.792390 -73.954020
40.792350 -73.953970
40.792280 -73.953880
40.792140 -73.953750
40.792010 -73.953620
40.791970 -73.953570
40.791950 -73.953530
40.791930 -73.953490
40.791910 -73.953440
40.791790 -73.953160
40.791720 -73.952980
40.787680 -73.983060
40.786770 -73.983520
40.786500 -73.983680
40.786380 -73.983800
40.786240 -73.983940
40.786020 -73.984300
40.785940 -73.984490
40.785930 -73.984580
40.785910 -73.984620
40.785850 -73.984700
40.785780 -73.984730
40.785720 -73.984740
40.785660 -73.984710
40.785610 -73.984660
40.785560 -73.984580
40.785550 -73.984480
40.785560 -73.984370
40.785600 -73.984300
40.785640 -73.984260
40.785720 -73.984220
40.785790 -73.984220
40.785840 -73.984250
40.785910 -73.984340
40.785940 -73.984430
40.780640 -73.986500
40.780810 -73.986880
40.780880 -73.986980
40.780980 -73.987050
40.781070 -73.987050
40.781330 -73.986870
40.781790 -73.986580
40.822410 -73.957870
40.822090 -73.958270
40.821770 -73.958540
40.821620 -73.958650
40.829590 -73.935220
40.829200 -73.935110
40.828570 -73.935000
40.828380 -73.934880
40.817180 -73.934460
40.817100 -73.934390
40.816990 -73.934350
40.816900 -73.934340
40.815640 -73.934440
40.815020 -73.934340
40.806650 -73.935000
40.806750 -73.935110
40.806820 -73.935170
40.806940 -73.935200
40.807070 -73.935210
40.807210 -73.935180
40.807430 -73.935020
40.807530 -73.934890
40.807600 -73.934700
40.807600 -73.934550
40.807540 -73.934340
40.807400 -73.934180
40.807050 -73.933890
40.806760 -73.933560
40.709620 -74.001560
40.710160 -74.002260
40.795790 -73.976620
40.795860 -73.976470
40.795950 -73.976340
40.796120 -73.976130
40.796160 -73.976060
40.796190 -73.975990
40.796210 -73.975940
40.796220 -73.975860
40.796220 -73.975760
40.796210 -73.975650
40.796200 -73.975540
40.796130 -73.975310
40.746340 -73.974720
40.746290 -73.974720
40.746250 -73.974700
40.746210 -73.974680
40.746170 -73.974660
40.746140 -73.974610
40.745990 -73.974270
40.745750 -73.973670
40.846480 -73.932510
40.846250 -73.931990
40.799310 -73.929120
40.799750 -73.929200
40.800140 -73.929310
40.800620 -73.929470
40.801120 -73.929620
40.830050 -73.934910
40.830270 -73.934990
40.830620 -73.935180
40.830740 -73.935310
40.830870 -73.935530
40.831000 -73.935890
40.756170 -73.956260
40.755650 -73.955970
40.755530 -73.955890
40.755520 -73.955810
40.756480 -73.955570
40.756390 -73.955650
40.756190 -73.955520
40.756100 -73.955410
40.754870 -73.957440
40.754870 -73.957360
40.754870 -73.957260
40.754900 -73.957150
40.754930 -73.957060
40.754990 -73.956960
40.755050 -73.956890
40.755090 -73.956850
40.755170 -73.956780
40.755240 -73.956720
40.755330 -73.956690
40.755420 -73.956680
40.755500 -73.956690
40.755580 -73.956720
40.755630 -73.956750
40.785570 -73.984710
40.785450 -73.984700
40.815320 -73.935750
40.814970 -73.934920
40.801950 -73.930080
40.802300 -73.930030
40.802530 -73.930050
40.802720 -73.930090
40.803050 -73.930220
40.803320 -73.930350
40.803530 -73.930460
40.803740 -73.930580
40.803910 -73.930720
40.803940 -73.930810
40.803950 -73.930910
40.803950 -73.931000
40.803920 -73.931130
40.803860 -73.931230
40.803790 -73.931300
40.803670 -73.931340
40.803570 -73.931320
40.803430 -73.931150
40.754620 -73.957630
40.754220 -73.957400
40.754100 -73.957310
40.754080 -73.957210
40.754800 -73.956920
40.754490 -73.956830
40.723490 -74.007620
40.723560 -74.007640
40.723640 -74.007640
40.723720 -74.007620
40.723790 -74.007590
40.723840 -74.007550
40.803980 -73.932450
40.803930 -73.931990
40.803930 -73.931560
40.803950 -73.931340
40.804060 -73.931130
40.804170 -73.931010
40.804260 -73.931000
40.804350 -73.931040
40.804820 -73.931430
40.805080 -73.931690
40.805970 -73.932640
40.798230 -73.952450
40.798080 -73.952600
40.798060 -73.952630
40.798040 -73.952660
40.798020 -73.952760
40.798010 -73.952890
40.798020 -73.953040
40.798050 -73.953160
40.798150 -73.953430
40.798200 -73.953600
40.798220 -73.953770
40.798220 -73.953810
40.798210 -73.953850
40.760230 -73.951510
40.760410 -73.951480
40.834160 -73.937020
40.834690 -73.936310
40.835020 -73.935900
40.804410 -73.932410
40.804320 -73.932400
40.804260 -73.932380
40.804190 -73.932340
40.804120 -73.932290
40.804070 -73.932230
40.804040 -73.932190
40.802070 -73.934060
40.763290 -73.947250
40.763700 -73.948060
40.766950 -74.019390
40.763030 -74.009880
40.770370 -73.943740
40.770370 -73.943260
40.770350 -73.943060
40.802560 -73.930330
40.801950 -73.930370
40.801720 -73.930400
40.801590 -73.930420
40.801430 -73.930340
40.791770 -73.937240
40.792430 -73.936750
40.746220 -73.973980
40.746560 -73.974740
40.746800 -73.975300
40.746990 -73.975740
40.747050 -73.975850
40.747110 -73.975910
40.747180 -73.975950
40.747250 -73.975970
40.747300 -73.976030
40.747350 -73.976100
40.746500 -73.974790
40.746760 -73.975390
40.746780 -73.975480
40.746810 -73.975570
40.746830 -73.975660
40.746830 -73.975740
40.746830 -73.975820
40.746820 -73.975900
40.746810 -73.975960
40.746790 -73.976020
40.746770 -73.976070
40.746750 -73.976130
40.746710 -73.976200
40.746670 -73.976250
40.746030 -73.976790
40.737380 -73.974520
40.737190 -73.974710
40.737030 -73.974900
40.762430 -73.947980
40.762960 -73.949110
40.802640 -73.933310
40.802550 -73.933300
40.802470 -73.933270
40.802380 -73.933230
40.802310 -73.933170
40.802240 -73.933100
40.802210 -73.933050
40.806510 -73.934720
40.806330 -73.934840
40.806170 -73.934860
40.806010 -73.934860
40.805860 -73.934790
40.805730 -73.934650
40.818770 -73.934340
40.818270 -73.934320
40.817880 -73.934240
40.847510 -73.929500
40.847680 -73.929740
40.847960 -73.929920
40.848060 -73.930060
40.848110 -73.930250
40.848100 -73.930410
40.848050 -73.930530
40.847900 -73.930670
40.847760 -73.930710
40.847560 -73.930700
40.846870 -73.930580
40.846680 -73.930580
40.846530 -73.930660
40.846400 -73.930830
40.846350 -73.930970
40.790460 -73.936580
40.789740 -73.937260
40.784570 -73.941690
40.784450 -73.942080
40.784170 -73.942690
40.784130 -73.942810
40.766830 -73.950630
40.766560 -73.950990
40.755780 -73.954260
40.756120 -73.954880
40.756630 -73.955810
40.710160 -74.004250
40.710930 -74.005040
40.706980 -74.006450
40.706460 -74.005800
40.706370 -74.005690
40.706040 -74.005280
40.705980 -74.005210
40.712430 -74.004910
40.712340 -74.004820
40.712140 -74.004570
40.715210 -73.984250
40.716110 -73.983620
40.716650 -73.983340
40.745810 -74.005530
40.746040 -74.006070
40.746790 -74.007850
40.871650 -73.911230
40.871700 -73.911330
40.872240 -73.912600
40.872350 -73.912810
40.812310 -73.952220
40.812940 -73.951770
40.813560 -73.951320
40.814180 -73.950860
40.815680 -73.949760
40.815790 -73.949710
40.815920 -73.949680
40.816020 -73.949680
40.816130 -73.949700
40.816230 -73.949740
40.816320 -73.949790
40.816410 -73.949860
40.816490 -73.949960
40.816630 -73.950020
40.816790 -73.950060
40.816950 -73.950080
40.817120 -73.950080
40.817280 -73.950050
40.817440 -73.950010
40.817590 -73.949950
40.817740 -73.949860
40.817880 -73.949760
40.817920 -73.949730
40.818070 -73.949630
40.818190 -73.949530
40.818320 -73.949390
40.818430 -73.949260
40.818530 -73.949120
40.818620 -73.948960
40.818670 -73.948840
40.818740 -73.948700
40.818840 -73.948570
40.818920 -73.948470
40.819020 -73.948370
40.819130 -73.948280
40.819160 -73.948270
40.820050 -73.947620
40.820130 -73.947570
40.820220 -73.947550
40.820300 -73.947550
40.820390 -73.947560
40.820460 -73.947590
40.821190 -73.947890
40.821480 -73.948540
40.713550 -73.980850
40.714260 -73.980920
40.763930 -73.974110
40.763650 -73.973460
40.855590 -73.927310
40.855630 -73.927410
40.856180 -73.928710
40.856600 -73.929720
40.857840 -73.932040
40.858080 -73.932900
40.858110 -73.932980
40.745300 -73.986840
40.746030 -73.988590
40.746650 -73.990060
40.747850 -73.992910
40.749050 -73.995740
40.750210 -73.998520
40.750240 -73.998600
40.751440 -74.001430
40.752640 -74.004290
40.753770 -74.007030
40.753830 -74.007250
40.862110 -73.930000
40.862160 -73.929850
40.862210 -73.929680
40.862330 -73.929380
40.862620 -73.928600
40.862920 -73.927760
40.863230 -73.926920
40.863570 -73.926010
40.864400 -73.923760
40.865100 -73.921880
40.865790 -73.919990
40.825950 -73.943350
40.827200 -73.942450
40.827820 -73.941990
40.828440 -73.941540
40.829080 -73.941070
40.830290 -73.940220
40.830380 -73.940140
40.782030 -73.971730
40.781960 -73.971590
40.781870 -73.971490
40.781790 -73.971420
40.781710 -73.971390
40.781590 -73.971380
40.781460 -73.971400
40.780920 -73.971610
40.873450 -73.907000
40.873660 -73.908070
40.873700 -73.908300
40.873720 -73.908410
40.873730 -73.908470
40.873740 -73.908520
40.873750 -73.908550
40.873770 -73.908580
40.873800 -73.908610
40.874090 -73.909010
40.874550 -73.909630
40.874680 -73.909810
40.875670 -73.912800
40.875460 -73.912730
40.875360 -73.912700
40.875310 -73.912670
40.875260 -73.912640
40.875230 -73.912620
40.875200 -73.912590
40.875160 -73.912540
40.875130 -73.912500
40.875100 -73.912450
40.875070 -73.912380
40.875050 -73.912330
40.875030 -73.912260
40.874950 -73.911970
40.874860 -73.911670
40.874800 -73.911490
40.874660 -73.911070
40.704540 -74.009460
40.704770 -74.009740
40.759280 -73.959260
40.759910 -73.958800
40.784350 -73.983300
40.783670 -73.981680
40.783200 -73.980580
40.783120 -73.980390
40.782460 -73.978820
40.781260 -73.975980
40.850370 -73.940600
40.850170 -73.939630
40.849970 -73.938650
40.849540 -73.936390
40.849140 -73.935470
40.848620 -73.934230
40.848030 -73.932840
40.847420 -73.931380
40.848210 -73.941340
40.849000 -73.941050
40.734810 -73.990750
40.733970 -73.990940
40.733210 -73.991110
40.732440 -73.991280
40.731730 -73.991460
40.731160 -73.991920
40.730600 -73.992390
40.730070 -73.992840
40.729580 -73.993260
40.729000 -73.993740
40.728410 -73.994250
40.727810 -73.994750
40.727210 -73.995270
40.726520 -73.995840
40.725500 -73.996710
40.725370 -73.996820
40.724230 -73.997780
40.723020 -73.998810
40.721790 -73.999850
40.720840 -74.000660
40.719930 -74.001420
40.719390 -74.001880
40.719150 -74.002090
40.718620 -74.002530
40.718020 -74.003040
40.717440 -74.003530
40.716870 -74.004020
40.716640 -74.004210
40.716280 -74.004530
40.715760 -74.004970
40.715230 -74.005420
40.714670 -74.005880
40.714160 -74.006310
40.705870 -74.013240
40.705650 -74.013340
40.705500 -74.013350
40.705340 -74.013360
40.705180 -74.013350
40.705020 -74.013350
40.704880 -74.013330
40.704590 -74.013280
40.704050 -74.013190
40.841700 -73.939340
40.841140 -73.939900
40.839920 -73.940770
40.839240 -73.941270
40.781530 -73.960410
40.780850 -73.958810
40.780220 -73.957310
40.780110 -73.957060
40.779490 -73.955580
40.778820 -73.953980
40.777870 -73.951740
40.776870 -73.949370
40.708340 -74.007640
40.707850 -74.006830
40.707200 -74.005950
40.735310 -73.994110
40.736660 -73.997340
40.737860 -74.000180
40.738670 -74.002150
40.738710 -74.002260
40.738730 -74.002330
40.738740 -74.002400
40.739070 -74.003070
40.739410 -74.003860
40.842940 -73.934650
40.843550 -73.936120
40.844130 -73.937510
40.844630 -73.938730
40.844670 -73.938850
40.845360 -73.940510
40.846230 -73.942610
40.706010 -74.008810
40.705540 -74.009050
40.705310 -74.009010
40.704970 -74.008910
40.704860 -74.008870
40.819380 -73.959320
40.818230 -73.956610
40.803870 -73.946130
40.803220 -73.944590
40.715340 -74.014290
40.715820 -74.015380
40.745440 -74.008290
40.745370 -74.008120
40.771140 -73.967990
40.770470 -73.966380
40.769830 -73.964860
40.769740 -73.964630
40.769120 -73.963150
40.768450 -73.961540
40.767510 -73.959300
40.766520 -73.956930
40.765570 -73.954670
40.731130 -74.002940
40.731770 -74.001160
40.870390 -73.912170
40.870430 -73.912250
40.871160 -73.914000
40.808170 -73.956340
40.807580 -73.954920
40.806980 -73.953500
40.806700 -73.952850
40.720340 -73.994110
40.720260 -73.994000
40.720190 -73.993860
40.719890 -73.992900
40.719660 -73.992200
40.719400 -73.991320
40.719170 -73.990550
40.717670 -73.984830
40.717410 -73.984000
40.717170 -73.983080
40.716970 -73.982280
40.716710 -73.981430
40.716450 -73.980570
40.811720 -73.954830
40.810990 -73.954280
40.716300 -74.006160
40.716530 -74.006670
40.717120 -74.007950
40.717590 -74.009000
40.801520 -73.938600
40.801790 -73.938390
40.743450 -73.988190
40.742770 -73.986590
40.742080 -73.984970
40.741400 -73.983360
40.740940 -73.982250
40.740730 -73.981760
40.740120 -73.980330
40.739780 -73.979510
40.739230 -73.978190
40.738790 -73.977140
40.868880 -73.915680
40.868930 -73.915800
40.869320 -73.916740
40.761170 -73.957880
40.762110 -73.960150
40.762680 -73.961480
40.763110 -73.962510
40.773030 -73.978280
40.774220 -73.981110
40.774640 -73.982090
40.774730 -73.982310
40.775380 -73.983970
40.714290 -74.011520
40.713840 -74.010560
40.713250 -74.009250
40.712540 -74.007680
40.847150 -73.940780
40.847380 -73.940690
40.720620 -73.994960
40.720890 -73.995750
40.721170 -73.996570
40.721420 -73.997320
40.721440 -73.997390
40.721470 -73.997470
40.721540 -73.997650
40.721570 -73.997760
40.767840 -73.949980
40.768810 -73.952310
40.718270 -74.005320
40.719000 -74.005170
40.719830 -74.005180
40.720450 -74.005200
40.720620 -74.005200
40.727660 -74.003150
40.728310 -74.003080
40.728390 -74.003090
40.788990 -73.946540
40.788050 -73.944320
40.787050 -73.941940
40.786090 -73.939650
40.702440 -74.012810
40.702410 -74.012880
40.702410 -74.012920
40.702370 -74.013510
40.702370 -74.013560
40.702370 -74.013640
40.702380 -74.013700
40.702400 -74.013760
40.717470 -74.010690
40.717370 -74.009990
40.717330 -74.009630
40.717260 -74.009060
40.716920 -74.009110
40.716580 -74.008370
40.715990 -74.007090
40.715760 -74.006580
40.748210 -74.007410
40.748870 -74.006930
40.736560 -74.001090
40.735790 -74.001540
40.735530 -74.001690
40.735060 -74.001960
40.734340 -74.002390
40.733610 -74.002820
40.733220 -74.003050
40.732310 -74.003580
40.733430 -73.995480
40.732730 -73.993810
40.731280 -73.990390
40.730720 -73.989050
40.730000 -73.987350
40.729770 -73.986810
40.728780 -73.984430
40.727840 -73.982220
40.850640 -73.937360
40.851900 -73.936890
40.769430 -73.949870
40.770050 -73.949430
40.771580 -73.990480
40.771790 -73.990320
40.740730 -74.008960
40.740300 -74.007950
40.739630 -74.006330
40.726410 -73.991850
40.727280 -73.993640
40.727560 -73.994190
40.727820 -73.994750
40.860950 -73.926500
40.861050 -73.926560
40.863610 -73.928200
40.864660 -73.928900
40.800090 -73.951090
40.800680 -73.952500
40.801240 -73.953820
40.801320 -73.954020
40.802480 -73.956770
40.803090 -73.958210
40.869450 -73.922340
40.869150 -73.922140
40.731890 -74.003790
40.731540 -74.004930
40.731350 -74.005530
40.731620 -74.005700
40.787890 -73.966690
40.787900 -73.966810
40.787900 -73.966900
40.787880 -73.967010
40.787850 -73.967100
40.787830 -73.967190
40.787820 -73.967240
40.787830 -73.967300
40.787870 -73.967490
40.732020 -73.982060
40.732690 -73.983640
40.732850 -73.984020
40.733030 -73.984440
40.733210 -73.984880
40.733370 -73.985240
40.733970 -73.986680
40.734650 -73.988280
40.735340 -73.989910
40.735870 -73.991200
40.736690 -73.993120
40.738760 -74.009540
40.738750 -74.008100
40.738750 -74.006460
40.738750 -74.005490
40.738750 -74.003860
40.738750 -74.003440
40.738750 -74.002470
40.728710 -74.003290
40.729340 -74.003650
40.729870 -74.003960
40.730440 -74.004300
40.730710 -74.004460
40.731000 -74.004620
40.731830 -74.005100
40.732440 -74.005460
40.733130 -74.005820
40.713130 -74.004050
40.713470 -74.004810
40.714920 -74.007940
40.715520 -74.009230
40.767390 -73.970720
40.766710 -73.969120
40.766070 -73.967600
40.765980 -73.967370
40.765350 -73.965890
40.764680 -73.964290
40.763730 -73.962060
40.762730 -73.959690
40.761780 -73.957440
40.866860 -73.930970
40.866920 -73.930930
40.867220 -73.930710
40.867440 -73.930490
40.867800 -73.930000
40.769900 -73.968900
40.769220 -73.967300
40.877840 -73.910020
40.877860 -73.910100
40.877910 -73.910300
40.877930 -73.910540
40.877910 -73.910810
40.877870 -73.911020
40.877800 -73.911230
40.877690 -73.911450
40.877550 -73.911650
40.876680 -73.912720
40.876550 -73.912820
40.876420 -73.912870
40.876270 -73.912910
40.876100 -73.912910
40.875930 -73.912880
40.736910 -74.005540
40.736850 -74.005470
40.736790 -74.005410
40.736740 -74.005370
40.736700 -74.005350
40.736610 -74.005310
40.736330 -74.005230
40.735960 -74.005120
40.735300 -74.004930
40.734660 -74.004740
40.734010 -74.004560
40.733360 -74.004240
40.732910 -74.003970
40.731740 -74.003290
40.731460 -74.003130
40.730910 -74.002810
40.730330 -74.002470
40.729690 -74.002190
40.711970 -73.997770
40.712060 -73.997790
40.712720 -73.997990
40.713190 -73.998130
40.713290 -73.998300
40.711320 -73.983610
40.712490 -73.983770
40.713200 -73.983880
40.722180 -73.990910
40.721920 -73.990040
40.721670 -73.989230
40.722820 -73.993150
40.722790 -73.993030
40.722400 -73.991640
40.719070 -73.993360
40.719350 -73.994260
40.719450 -73.994390
40.716890 -73.986200
40.716910 -73.986240
40.719550 -73.994500
40.719860 -73.995260
40.720130 -73.996050
40.720480 -73.996820
40.720700 -73.997340
40.720830 -73.997650
40.733660 -73.999520
40.733840 -73.999580
40.733990 -73.999620
40.734070 -73.999650
40.734230 -73.999710
40.734270 -73.999730
40.734310 -73.999750
40.734330 -73.999760
40.734370 -73.999780
40.734680 -73.999970
40.838100 -73.936230
40.838150 -73.936280
40.838660 -73.936650
40.839350 -73.937120
40.839410 -73.937240
40.725650 -73.993750
40.724760 -73.994140
40.724600 -73.994210
40.723810 -73.994560
40.723550 -73.994670
40.723420 -73.994730
40.723280 -73.994800
40.723030 -73.994900
40.721610 -73.995460
40.719050 -73.996470
40.718960 -73.996510
40.718690 -73.996630
40.718410 -73.996770
40.718130 -73.996930
40.717870 -73.997100
40.716810 -73.997760
40.715630 -73.998490
40.714990 -73.998860
40.714500 -73.998790
40.713650 -73.998660
40.713560 -73.998580
40.713430 -73.998470
40.797080 -73.949690
40.796980 -73.949630
40.796940 -73.949630
40.796890 -73.949640
40.796830 -73.949640
40.796770 -73.949630
40.796730 -73.949600
40.796670 -73.949560
40.796630 -73.949500
40.796590 -73.949420
40.752810 -73.981370
40.752130 -73.979760
40.751510 -73.978280
40.751410 -73.978030
40.750770 -73.976530
40.750300 -73.975420
40.750100 -73.974930
40.776890 -73.975460
40.778060 -73.978310
40.779260 -73.981150
40.757910 -73.977650
40.758230 -73.978410
40.758390 -73.978820
40.758430 -73.978910
40.758470 -73.978990
40.759270 -73.980880
40.820430 -73.936240
40.821100 -73.935740
40.821730 -73.935280
40.755400 -73.979480
40.756350 -73.981710
40.756770 -73.982710
40.859570 -73.919110
40.859890 -73.919840
40.798720 -73.959540
40.799320 -73.960970
40.799910 -73.962380
40.801100 -73.965210
40.802160 -73.967690
40.802250 -73.967900
40.802320 -73.968110
40.802930 -73.969560
40.865530 -73.927260
40.864520 -73.926620
40.862580 -73.925370
40.861630 -73.924790
40.861540 -73.924730
40.762960 -73.973960
40.762280 -73.972350
40.761640 -73.970820
40.761550 -73.970600
40.760920 -73.969130
40.760250 -73.967530
40.759310 -73.965290
40.758970 -73.964500
40.758310 -73.962920
40.873020 -73.918450
40.872240 -73.919450
40.872070 -73.919670
40.804190 -73.952720
40.803740 -73.952690
40.803610 -73.952690
40.803520 -73.952700
40.803460 -73.952720
40.803320 -73.952770
40.708150 -74.002140
40.707710 -74.001750
40.707270 -74.001340
40.707360 -74.001180
40.707800 -74.001570
40.708250 -74.001940
40.797140 -73.973650
40.796550 -73.972250
40.795990 -73.970920
40.795920 -73.970740
40.795350 -73.969400
40.733430 -74.001100
40.733840 -74.001200
40.732210 -73.998610
40.732920 -74.000060
40.733240 -74.000700
40.733690 -74.001630
40.730720 -73.995570
40.730350 -73.994820
40.729970 -73.994060
40.707900 -74.006020
40.708400 -74.004770
40.833480 -73.945480
40.833400 -73.945290
40.832230 -73.942480
40.856230 -73.926860
40.856800 -73.928260
40.857970 -73.930900
40.858270 -73.931810
40.785840 -73.939840
40.785680 -73.940010
40.785520 -73.940220
40.785400 -73.940390
40.785290 -73.940570
40.785160 -73.940790
40.785030 -73.941020
40.784580 -73.941950
40.784530 -73.942100
40.784210 -73.942700
40.782330 -73.944190
40.782170 -73.944240
40.781960 -73.944260
40.781740 -73.944270
40.781490 -73.944260
40.781350 -73.944230
40.781130 -73.944200
40.780910 -73.944140
40.780600 -73.944060
40.780350 -73.944000
40.780080 -73.943920
40.779850 -73.943830
40.779460 -73.943670
40.713770 -73.998070
40.713670 -73.997970
40.714610 -73.983120
40.714650 -73.982780
40.714690 -73.982450
40.785810 -73.978640
40.785750 -73.978470
40.785090 -73.976890
40.783900 -73.974060
40.782710 -73.971250
40.726620 -73.999050
40.726490 -73.999160
40.725380 -74.000100
40.724160 -74.001120
40.722930 -74.002170
40.721990 -74.002970
40.720950 -74.003840
40.720850 -74.003920
40.756080 -73.994950
40.755880 -73.994480
40.755840 -73.994390
40.754700 -73.991630
40.753510 -73.988780
40.752890 -73.987310
40.752310 -73.985940
40.750950 -73.982720
40.817280 -73.938530
40.818440 -73.941310
40.818500 -73.941460
40.819670 -73.944230
40.820250 -73.945610
40.820570 -73.946400
40.824120 -73.954830
40.823310 -73.952900
40.823230 -73.952710
40.822640 -73.951300
40.822060 -73.949900
40.733370 -74.002570
40.732940 -74.001800
40.702480 -74.012720
40.702680 -74.012270
40.702820 -74.011920
40.765120 -73.973140
40.765300 -73.973100
40.765550 -73.972940
40.765700 -73.972840
40.766020 -73.972620
40.766150 -73.972590
40.766240 -73.972590
40.766330 -73.972610
40.766450 -73.972680
40.766750 -73.972880
40.766980 -73.972990
40.767270 -73.973100
40.767560 -73.973160
40.767760 -73.973190
40.756030 -73.979020
40.755350 -73.977410
40.754970 -73.976510
40.754770 -73.976040
40.754700 -73.975870
40.754610 -73.975660
40.754560 -73.975540
40.753990 -73.974190
40.753310 -73.972580
40.817220 -73.952270
40.817580 -73.953170
40.818480 -73.955290
40.818780 -73.955970
40.818860 -73.956150
40.820000 -73.958870
40.812810 -73.941800
40.813980 -73.944570
40.814050 -73.944740
40.815200 -73.947480
40.815690 -73.948670
40.803350 -73.932910
40.802480 -73.930850
40.729550 -73.989900
40.728590 -73.987670
40.727590 -73.985300
40.726660 -73.983090
40.785960 -73.968840
40.787160 -73.971680
40.788350 -73.974510
40.788920 -73.975890
40.788990 -73.976060
40.789560 -73.977370
40.790610 -73.979870
40.782550 -73.945250
40.783540 -73.947600
40.784490 -73.949830
40.785170 -73.951430
40.785800 -73.952910
40.785910 -73.953170
40.786540 -73.954660
40.787220 -73.956260
40.706540 -74.016750
40.706840 -74.017570
40.747020 -74.004650
40.824150 -73.937130
40.824220 -73.937310
40.825370 -73.940050
40.825790 -73.941040
40.826640 -73.943050
40.827190 -73.944360
40.827760 -73.945740
40.828940 -73.948550
40.829020 -73.948740
40.829580 -73.950080
40.764570 -73.973630
40.765670 -73.976230
40.733960 -73.988770
40.735290 -73.987810
40.735870 -73.987380
40.736460 -73.986960
40.737050 -73.986530
40.737640 -73.986120
40.796170 -73.947620
40.795550 -73.946150
40.795430 -73.945880
40.794810 -73.944400
40.794130 -73.942800
40.793180 -73.940560
40.792170 -73.938200
40.708110 -74.009820
40.708790 -74.010840
40.709300 -74.011930
40.709710 -74.012830
40.706370 -74.007130
40.707340 -74.008640
40.752230 -73.999460
40.751940 -73.999630
40.751870 -73.999680
40.751820 -73.999690
40.751750 -73.999670
40.751690 -73.999650
40.751650 -73.999630
40.751600 -73.999600
40.751550 -73.999560
40.751480 -73.999460
40.751370 -73.999290
40.744060 -73.987740
40.744530 -73.988860
40.745130 -73.990280
40.745190 -73.990440
40.745420 -73.990960
40.746610 -73.993810
40.746690 -73.993980
40.748800 -74.000900
40.749080 -74.000720
40.749130 -74.000500
40.749260 -74.000450
40.749390 -74.000470
40.749510 -74.000610
40.750200 -74.002330
40.711340 -73.983310
40.710810 -73.983250
40.789630 -73.946080
40.790310 -73.947680
40.790940 -73.949160
40.791050 -73.949420
40.792340 -73.952520
40.791670 -73.950910
40.787690 -73.941470
40.788680 -73.943850
40.743830 -73.971590
40.743900 -73.971770
40.744450 -73.973020
40.745170 -73.974740
40.745440 -73.975390
40.841700 -73.935550
40.842310 -73.937020
40.842900 -73.938420
40.843220 -73.939170
40.844040 -73.941140
40.844600 -73.942450
40.840440 -73.935280
40.840800 -73.935430
40.796110 -73.929760
40.796980 -73.931740
40.768250 -73.981490
40.768270 -73.981490
40.768310 -73.981500
40.768340 -73.981510
40.768390 -73.981520
40.768420 -73.981530
40.768450 -73.981530
40.768460 -73.981530
40.768480 -73.981530
40.768500 -73.981520
40.768550 -73.981490
40.769900 -73.980560
40.801790 -73.961050
40.801820 -73.961040
40.801920 -73.961020
40.803590 -73.960440
40.803990 -73.960310
40.804700 -73.960060
40.805430 -73.959820
40.806120 -73.959350
40.807410 -73.958390
40.808040 -73.957930
40.808670 -73.957610
40.809400 -73.957240
40.809520 -73.957170
40.809600 -73.957140
40.809630 -73.957130
40.809670 -73.957120
40.809710 -73.957110
40.809750 -73.957110
40.809820 -73.957110
40.809880 -73.957120
40.809960 -73.957150
40.809990 -73.957160
40.810010 -73.957170
40.810060 -73.957200
40.810090 -73.957230
40.810110 -73.957250
40.810170 -73.957310
40.810200 -73.957350
40.810230 -73.957390
40.810260 -73.957430
40.810270 -73.957460
40.810290 -73.957490
40.810340 -73.957620
40.810600 -73.958210
40.810620 -73.958270
40.794370 -73.933640
40.795320 -73.935900
40.796310 -73.938270
40.797250 -73.940520
40.797930 -73.942120
40.798550 -73.943610
40.798660 -73.943880
40.799280 -73.945360
40.799960 -73.946970
40.713930 -73.999550
40.714450 -73.999590
40.715160 -73.999650
40.715910 -73.999320
40.717090 -73.998580
40.718150 -73.997930
40.718470 -73.997740
40.718790 -73.997550
40.719160 -73.997370
40.719320 -73.997300
40.721650 -73.996380
40.721950 -73.996260
40.723360 -73.995700
40.723520 -73.995620
40.723650 -73.995560
40.723790 -73.995500
40.724070 -73.995350
40.724900 -73.994930
40.725010 -73.994870
40.725840 -73.994460
40.780220 -73.961370
40.780180 -73.961280
40.779580 -73.959880
40.779540 -73.959770
40.718030 -73.987550
40.717850 -73.986970
40.717780 -73.986710
40.717690 -73.986200
40.875630 -73.908250
40.875720 -73.908330
40.875800 -73.908400
40.876010 -73.908430
40.876680 -73.908510
40.876780 -73.908530
40.876820 -73.908550
40.876870 -73.908580
40.876920 -73.908630
40.876950 -73.908670
40.877170 -73.908960
40.877220 -73.909050
40.800800 -73.958020
40.801230 -73.957690
40.801850 -73.957230
40.803110 -73.956320
40.803740 -73.955860
40.804420 -73.955360
40.805090 -73.954870
40.805720 -73.954410
40.806350 -73.953950
40.807610 -73.953040
40.807780 -73.952910
40.712790 -73.997110
40.713020 -73.994450
40.713050 -73.994070
40.713090 -73.993610
40.713090 -73.993540
40.713160 -73.992620
40.820820 -73.950810
40.821700 -73.952900
40.822000 -73.953620
40.822080 -73.953810
40.823120 -73.956310
40.814670 -73.936220
40.814830 -73.936600
40.816020 -73.939450
40.812640 -73.939470
40.812780 -73.939810
40.812890 -73.940070
40.818230 -73.952700
40.819400 -73.955490
40.813430 -73.941340
40.814600 -73.944120
40.814670 -73.944270
40.815830 -73.947030
40.816370 -73.948350
40.723280 -74.008000
40.723430 -74.009530
40.723510 -74.010340
40.723620 -74.011380
40.712780 -74.011780
40.712850 -74.011780
40.712880 -74.011790
40.712920 -74.011810
40.712980 -74.011820
40.713630 -74.011660
40.704820 -74.014970
40.706080 -74.014410
40.706230 -74.014320
40.851430 -73.927080
40.851850 -73.928140
40.721630 -74.011780
40.721520 -74.010680
40.721460 -74.009910
40.721400 -74.009180
40.721320 -74.008340
40.740850 -74.005150
40.740020 -74.005290
40.739410 -74.005390
40.738130 -74.005590
40.737550 -74.005680
40.737150 -74.005740
40.736530 -74.005850
40.736600 -74.005840
40.736640 -74.005820
40.736690 -74.005790
40.736730 -74.005740
40.736780 -74.005680
40.772460 -73.967030
40.771780 -73.965430
40.771140 -73.963910
40.771040 -73.963680
40.770420 -73.962210
40.769740 -73.960600
40.768800 -73.958360
40.767800 -73.955990
40.760860 -73.961060
40.761420 -73.962380
40.776860 -73.943360
40.777850 -73.945710
40.778800 -73.947960
40.725020 -74.005890
40.724890 -74.004640
40.741520 -73.987520
40.740850 -73.985870
40.740170 -73.984260
40.792960 -73.952070
40.792290 -73.950460
40.791660 -73.948980
40.791550 -73.948710
40.790930 -73.947230
40.790250 -73.945630
40.789310 -73.943390
40.788310 -73.941010
40.795580 -73.950150
40.794910 -73.948550
40.794280 -73.947070
40.794170 -73.946800
40.793540 -73.945320
40.792870 -73.943720
40.791900 -73.941500
40.790900 -73.939130
40.755210 -73.961890
40.754960 -73.962240
40.754860 -73.962360
40.754820 -73.962430
40.754810 -73.962530
40.754850 -73.962650
40.740640 -73.975800
40.741620 -73.978180
40.730280 -73.998070
40.729680 -73.998600
40.728420 -73.999670
40.727370 -74.000560
40.722050 -74.005020
40.722190 -74.005300
40.847660 -73.942180
40.847210 -73.939770
40.846930 -73.938220
40.846620 -73.937310
40.846100 -73.936070
40.845520 -73.934680
40.844900 -73.933220
40.729690 -74.002040
40.729880 -74.001340
40.730240 -74.001020
40.776310 -73.964220
40.775620 -73.962630
40.774980 -73.961120
40.774880 -73.960880
40.774250 -73.959410
40.773570 -73.957810
40.772620 -73.955570
40.771610 -73.953210
40.770650 -73.950970
40.728050 -73.976880
40.728740 -73.978530
40.727760 -73.976210
40.726750 -73.973790
40.726250 -73.972640
40.729730 -74.002410
40.728850 -74.005260
40.710770 -73.983840
40.711300 -73.983910
40.794830 -73.976230
40.793960 -73.974180
40.793640 -73.973430
40.793390 -73.972840
40.793310 -73.972660
40.792750 -73.971310
40.791560 -73.968470
40.790360 -73.965660
40.736540 -73.989040
40.736390 -73.989150
40.803100 -73.929750
40.803160 -73.929620
40.803730 -73.928490
40.804030 -73.927860
40.792150 -73.977700
40.791440 -73.976000
40.790870 -73.974670
40.790800 -73.974490
40.790240 -73.973140
40.718300 -73.982500
40.718570 -73.983390
40.718820 -73.984220
40.717540 -73.980000
40.717310 -73.979290
40.714050 -73.997610
40.713980 -73.997480
40.713900 -73.997410
40.713460 -73.997300
40.712070 -73.996940
40.711360 -73.996780
40.710200 -73.996480
40.806820 -73.961030
40.800660 -73.946460
40.802020 -73.949680
40.798120 -73.948310
40.799450 -73.951520
40.799840 -73.952450
40.800610 -73.954290
40.800690 -73.954480
40.802460 -73.958670
40.806120 -73.967370
40.805490 -73.965860
40.805400 -73.965670
40.804250 -73.962920
40.738500 -73.991790
40.737790 -73.990120
40.737140 -73.988570
40.735790 -73.985360
40.734840 -73.983120
40.733820 -73.980730
40.783340 -73.970790
40.784530 -73.973590
40.785730 -73.976430
40.786390 -73.978000
40.786450 -73.978170
40.786920 -73.979300
40.787720 -73.981150
40.837190 -73.936690
40.837230 -73.936780
40.837880 -73.938350
40.838010 -73.938430
40.838750 -73.939630
40.720670 -73.978230
40.721670 -73.980600
40.775530 -73.976450
40.776720 -73.979290
40.777850 -73.981950
40.777920 -73.982120
40.777950 -73.982190
40.779120 -73.984990
40.709830 -74.014710
40.709810 -74.014630
40.709490 -74.013890
40.709140 -74.013080
40.763660 -73.956080
40.764610 -73.958320
40.765610 -73.960690
40.766550 -73.962930
40.767230 -73.964530
40.767850 -73.966010
40.767950 -73.966230
40.768590 -73.967760
40.769270 -73.969360
40.713770 -73.985090
40.714160 -73.984920
40.714500 -73.984730
40.714660 -73.984630
40.714860 -73.984500
40.717990 -74.009490
40.718690 -74.009330
40.711710 -73.984850
40.711530 -73.986740
40.711450 -73.987610
40.711380 -73.988310
40.711310 -73.989060
40.711260 -73.989550
40.711240 -73.989730
40.711210 -73.989930
40.710910 -73.992020
40.710880 -73.992190
40.710730 -73.993010
40.710550 -73.994130
40.710240 -73.996240
40.712410 -73.978020
40.712330 -73.979000
40.737330 -73.985380
40.737620 -73.985180
40.737910 -73.984960
40.704240 -74.011560
40.704260 -74.011490
40.704310 -74.011300
40.704380 -74.011070
40.704400 -74.011000
40.704460 -74.010870
40.704540 -74.010690
40.704640 -74.010510
40.704760 -74.010320
40.705140 -74.009980
40.727110 -73.991600
40.725670 -73.992140
40.725250 -73.992280
40.724910 -73.992390
40.724230 -73.992640
40.748430 -73.984560
40.749790 -73.987760
40.749850 -73.987900
40.750990 -73.990610
40.711790 -73.999700
40.711810 -73.999510
40.711870 -73.998740
40.711870 -73.998670
40.711960 -73.997870
40.711970 -73.997690
40.712300 -73.994360
40.712350 -73.993770
40.712380 -73.993380
40.712450 -73.992560
40.712460 -73.992300
40.813450 -73.939320
40.707180 -74.016470
40.707460 -74.017120
40.729770 -73.974740
40.729830 -73.974900
40.730190 -73.975780
40.730420 -73.975960
40.730640 -73.975980
40.730800 -73.975910
40.731040 -73.975770
40.731160 -73.975670
40.731310 -73.975500
40.731400 -73.975170
40.731260 -73.974600
40.730990 -73.973980
40.875690 -73.911450
40.875630 -73.911320
40.875610 -73.911200
40.875610 -73.911100
40.875650 -73.911010
40.875910 -73.910690
40.875950 -73.910580
40.875990 -73.910470
40.876120 -73.909760
40.876160 -73.909650
40.876270 -73.909440
40.778200 -73.988580
40.777840 -73.987750
40.720890 -73.982180
40.719720 -73.982790
40.716930 -73.984250
40.797370 -73.960530
40.797980 -73.961960
40.798560 -73.963360
40.799750 -73.966190
40.800460 -73.967890
40.800540 -73.968090
40.800950 -73.969060
40.801590 -73.970540
40.865360 -73.924380
40.866060 -73.922490
40.866750 -73.920610
40.812740 -73.937630
40.812110 -73.936130
40.854970 -73.927780
40.855540 -73.929170
40.856070 -73.930400
40.733620 -73.999500
40.733590 -73.999490
40.733570 -73.999470
40.733550 -73.999440
40.733540 -73.999420
40.732940 -73.997980
40.732250 -73.996350
40.714380 -73.992580
40.714650 -73.992570
40.715040 -73.992380
40.723030 -73.988730
40.722900 -73.988790
40.827610 -73.935730
40.827650 -73.935770
40.828500 -73.937780
40.828980 -73.938960
40.830160 -73.941660
40.830880 -73.943460
40.707400 -74.014690
40.707670 -74.015520
40.716200 -74.000130
40.715370 -73.997720
40.715050 -73.996850
40.715010 -73.996720
40.791240 -73.979400
40.790170 -73.976920
40.789610 -73.975590
40.789540 -73.975420
40.788980 -73.974050
40.787790 -73.971220
40.817510 -73.960680
40.817000 -73.959490
40.800450 -73.932150
40.800490 -73.932040
40.800520 -73.931900
40.800540 -73.931750
40.800540 -73.931600
40.800060 -73.930510
40.800020 -73.930440
40.799940 -73.930350
40.799860 -73.930280
40.799760 -73.930220
40.798450 -73.929720
40.798240 -73.929650
40.798020 -73.929600
40.797800 -73.929560
40.797550 -73.929540
40.797340 -73.929540
40.797250 -73.929550
40.797200 -73.929560
40.797140 -73.929590
40.797100 -73.929640
40.797070 -73.929690
40.797040 -73.929760
40.797030 -73.929820
40.800630 -73.931780
40.800710 -73.931960
40.709800 -74.009980
40.710360 -74.011230
40.851320 -73.940230
40.851290 -73.940600
40.851300 -73.940920
40.851340 -73.941110
40.738210 -73.985670
40.738530 -73.986420
40.849310 -73.930000
40.849920 -73.931470
40.850500 -73.932860
40.851020 -73.934090
40.851430 -73.935080
40.852120 -73.937810
40.817040 -73.955790
40.817510 -73.956880
40.817590 -73.957070
40.818760 -73.959780
40.815840 -73.952860
40.816350 -73.954070
40.833270 -73.939150
40.833780 -73.940360
40.834110 -73.941100
40.835280 -73.943910
40.817790 -73.935950
40.818510 -73.937640
40.819690 -73.940400
40.819750 -73.940550
40.820910 -73.943320
40.821460 -73.944600
40.825320 -73.953750
40.824570 -73.951980
40.824490 -73.951790
40.823600 -73.949680
40.823310 -73.948990
40.822730 -73.947620
40.775580 -73.990150
40.775860 -73.989900
40.776170 -73.989630
40.776830 -73.989160
40.733080 -73.975390
40.732980 -73.975430
40.732960 -73.975440
40.732850 -73.975520
40.732750 -73.975630
40.732650 -73.975750
40.732570 -73.975870
40.732510 -73.976000
40.732450 -73.976150
40.732420 -73.976400
40.732420 -73.976660
40.732460 -73.976840
40.732490 -73.976980
40.732550 -73.977140
40.732620 -73.977310
40.732670 -73.977440
40.732750 -73.977590
40.732960 -73.977800
40.733200 -73.977940
40.733320 -73.977960
40.733470 -73.977960
40.733570 -73.977950
40.733700 -73.977920
40.733810 -73.977870
40.733930 -73.977800
40.733960 -73.977780
40.734040 -73.977720
40.709470 -74.001670
40.709360 -74.001570
40.708790 -74.000860
40.708340 -74.000480
40.707900 -74.000120
40.777670 -73.963230
40.777000 -73.961620
40.776360 -73.960110
40.776260 -73.959870
40.775630 -73.958400
40.774960 -73.956800
40.774010 -73.954550
40.773010 -73.952180
40.772060 -73.949940
40.713590 -73.985140
40.713070 -73.985050
40.712350 -73.984950
40.711220 -73.984780
40.710680 -73.984700
40.714460 -73.985340
40.713770 -73.985210
40.753080 -74.007290
40.752990 -74.007050
40.752010 -74.004730
40.750820 -74.001880
40.749630 -73.999030
40.749610 -73.998990
40.749600 -73.998960
40.749560 -73.998830
40.749520 -73.998680
40.749490 -73.998510
40.749480 -73.998360
40.749490 -73.998190
40.749490 -73.998140
40.749490 -73.997940
40.749470 -73.997790
40.749440 -73.997650
40.749400 -73.997490
40.749340 -73.997330
40.749260 -73.997180
40.749180 -73.997070
40.749100 -73.996960
40.749050 -73.996910
40.748960 -73.996850
40.748850 -73.996780
40.748740 -73.996690
40.748640 -73.996580
40.748550 -73.996450
40.748480 -73.996300
40.748420 -73.996190
40.747230 -73.993350
40.746030 -73.990510
40.745280 -73.988720
40.744680 -73.987290
40.805740 -73.942750
40.805060 -73.941160
40.804440 -73.939670
40.804320 -73.939390
40.803690 -73.937910
40.737100 -73.990320
40.736520 -73.990730
40.735200 -73.991690
40.766630 -73.951160
40.776500 -73.988390
40.777140 -73.988070
40.778520 -73.987430
40.779170 -73.987110
40.818900 -73.952210
40.818390 -73.950880
40.737940 -73.986830
40.780670 -73.976410
40.752900 -73.963980
40.752380 -73.964640
40.805760 -73.944780
40.806460 -73.946430
40.807630 -73.949200
40.807700 -73.949350
40.808860 -73.952120
40.809230 -73.953000
40.809460 -73.953540
40.810060 -73.954960
40.810310 -73.955550
40.810480 -73.955970
40.811250 -73.957790
40.812430 -73.960570
40.875770 -73.911530
40.875840 -73.911550
40.875900 -73.911550
40.875970 -73.911540
40.876040 -73.911510
40.876100 -73.911450
40.876500 -73.910940
40.876530 -73.910880
40.876550 -73.910810
40.876550 -73.910740
40.876550 -73.910690
40.876560 -73.910630
40.876580 -73.910570
40.876960 -73.910070
40.788380 -73.947000
40.789050 -73.948600
40.789670 -73.950080
40.791080 -73.953430
40.790410 -73.951830
40.786430 -73.942390
40.787440 -73.944770
40.807540 -73.937040
40.807660 -73.937330
40.808950 -73.940400
40.808280 -73.938790
40.806910 -73.935560
40.730420 -73.980350
40.730540 -73.980270
40.730810 -73.979960
40.730980 -73.979690
40.731060 -73.979370
40.731070 -73.979030
40.731080 -73.978810
40.730930 -73.978380
40.730790 -73.978120
40.730710 -73.978000
40.730410 -73.977810
40.730180 -73.977750
40.730000 -73.977720
40.729760 -73.977790
40.729560 -73.977930
40.818300 -73.960120
40.818030 -73.960450
40.821300 -73.957910
40.769890 -73.973570
40.769850 -73.973450
40.769800 -73.973340
40.769710 -73.973150
40.769640 -73.973000
40.769580 -73.972850
40.769540 -73.972700
40.769510 -73.972550
40.769490 -73.972390
40.860470 -73.921230
40.860780 -73.921450
40.860830 -73.921560
40.819450 -73.931910
40.819490 -73.932460
40.819490 -73.932560
40.819470 -73.933370
40.819470 -73.933700
40.819480 -73.933810
40.819500 -73.933930
40.819510 -73.934050
40.819550 -73.934180
40.819590 -73.934290
40.819720 -73.934590
40.876030 -73.913560
40.736960 -73.984500
40.739670 -73.990940
40.739170 -73.989760
40.738310 -73.987720
40.719570 -73.998070
40.828920 -73.950390
40.828410 -73.949180
40.828330 -73.948990
40.827150 -73.946190
40.826570 -73.944810
40.823530 -73.937600
40.823600 -73.937770
40.824750 -73.940510
40.825170 -73.941500
40.738220 -73.986630
40.729880 -73.991410
40.729800 -73.990740
40.729740 -73.990360
40.737910 -73.992220
40.739270 -73.995440
40.740470 -73.998280
40.741660 -74.001120
40.742840 -74.003920
40.742860 -74.003960
40.744060 -74.006810
40.744690 -74.008240
40.744760 -74.008430
40.733750 -73.980570
40.733420 -73.979880
40.733230 -73.979640
40.733030 -73.979580
40.732840 -73.979570
40.732690 -73.979630
40.732540 -73.979730
40.732410 -73.979850
40.732280 -73.980060
40.732230 -73.980250
40.732190 -73.980450
40.732250 -73.980740
40.732570 -73.981430
40.732650 -73.981600
40.726870 -74.003120
40.726910 -74.003200
40.726940 -74.003270
40.726950 -74.003370
40.726950 -74.003440
40.727150 -74.005540
40.727320 -74.007320
40.727470 -74.008840
40.839480 -73.936040
40.840370 -73.935390
40.775140 -73.945270
40.775580 -73.944950
40.778940 -73.962300
40.778270 -73.960700
40.777630 -73.959190
40.777530 -73.958940
40.776910 -73.957470
40.776230 -73.955860
40.775290 -73.953620
40.774290 -73.951260
40.773340 -73.949000
40.772350 -73.946650
40.871040 -73.915740
40.871070 -73.915810
40.871580 -73.917000
40.868250 -73.916130
40.868880 -73.917590
40.750310 -73.991110
40.749700 -73.991560
40.801970 -73.945500
40.801290 -73.943890
40.800670 -73.942420
40.800550 -73.942150
40.799920 -73.940660
40.799250 -73.939060
40.798300 -73.936820
40.797310 -73.934450
40.796350 -73.932200
40.723620 -74.004780
40.724050 -74.004380
40.724180 -74.004270
40.725250 -74.003370
40.726490 -74.002350
40.727610 -74.001440
40.727740 -74.001330
40.728800 -74.000430
40.730050 -73.999360
40.730660 -73.998840
40.723000 -74.005220
40.722250 -74.005910
40.773770 -73.966070
40.773090 -73.964470
40.772450 -73.962960
40.772350 -73.962720
40.771730 -73.961250
40.771050 -73.959650
40.770100 -73.957410
40.769100 -73.955040
40.768150 -73.952800
40.718910 -73.999230
40.719190 -73.999840
40.719550 -74.000620
40.720340 -74.002220
40.799480 -73.955380
40.799370 -73.955420
40.799290 -73.955520
40.799270 -73.955560
40.799250 -73.955620
40.799240 -73.955680
40.799240 -73.955760
40.799250 -73.955920
40.817080 -73.947930
40.817760 -73.947440
40.818380 -73.946980
40.820870 -73.945150
40.821550 -73.944840
40.823640 -73.943840
40.823670 -73.943820
40.826220 -73.941970
40.826290 -73.941910
40.826820 -73.941530
40.827730 -73.940870
40.829300 -73.939720
40.829390 -73.939680
40.829480 -73.939660
40.829580 -73.939660
40.829670 -73.939670
40.829770 -73.939700
40.829850 -73.939750
40.829910 -73.939800
40.829990 -73.939880
40.830050 -73.939970
40.830150 -73.940120
40.830450 -73.940340
40.830000 -73.939810
40.830060 -73.939780
40.830090 -73.939740
40.830110 -73.939690
40.830140 -73.939590
40.712590 -73.998880
40.748460 -73.992460
40.746000 -73.994260
40.745380 -73.994700
40.744760 -73.995160
40.744090 -73.995640
40.743430 -73.996120
40.742810 -73.996580
40.742220 -73.997000
40.741640 -73.997430
40.741050 -73.997860
40.739880 -73.998710
40.739240 -73.999180
40.738550 -73.999680
40.803930 -73.952110
40.804560 -73.951650
40.766870 -73.979070
40.766210 -73.979530
40.765520 -73.980030
40.764830 -73.980530
40.764210 -73.980980
40.763580 -73.981440
40.762960 -73.981890
40.762330 -73.982350
40.761710 -73.982800
40.761090 -73.983250
40.760460 -73.983720
40.759840 -73.984170
40.827990 -73.934970
40.827850 -73.935150
40.822050 -73.944040
40.822620 -73.943500
40.823250 -73.942920
40.823620 -73.942640
40.823900 -73.942430
40.824190 -73.942210
40.824550 -73.941950
40.825210 -73.941460
40.826080 -73.940830
40.826410 -73.940590
40.827030 -73.940140
40.827650 -73.939690
40.828290 -73.939240
40.829640 -73.938710
40.829740 -73.938670
40.866020 -73.925870
40.866990 -73.926770
40.867060 -73.926830
40.803890 -73.958200
40.804080 -73.958210
40.804710 -73.958240
40.805330 -73.958270
40.805380 -73.958280
40.805440 -73.958260
40.805500 -73.958240
40.805590 -73.958200
40.805710 -73.958120
40.806290 -73.957720
40.806910 -73.957260
40.807540 -73.956800
40.808800 -73.955880
40.809420 -73.955430
40.810680 -73.954510
40.811370 -73.954010
40.759910 -73.980410
40.759090 -73.978520
40.759060 -73.978440
40.759010 -73.978320
40.758850 -73.977960
40.758530 -73.977200
40.765100 -73.973200
40.765070 -73.973280
40.765020 -73.973340
40.764830 -73.973460
40.764670 -73.973560
40.764270 -73.973010
40.764420 -73.973330
40.740880 -73.990070
40.740590 -73.989370
40.710320 -74.009540
40.709530 -74.008410
40.709110 -74.007850
40.708690 -74.007280
40.708220 -74.006530
40.707380 -74.005480
40.815710 -73.939680
40.816660 -73.938990
40.777000 -73.963740
40.777080 -73.963930
40.710460 -73.986620
40.710970 -73.986670
40.712900 -73.986920
40.713630 -73.987060
40.714310 -73.987160
40.753800 -73.964020
40.753930 -73.964340
40.863800 -73.919460
40.863790 -73.919400
40.863770 -73.919360
40.863060 -73.917660
40.863020 -73.917550
40.862980 -73.917470
40.862520 -73.916370
40.729840 -74.010660
40.729820 -74.010470
40.729700 -74.009200
40.729620 -74.008390
40.728190 -73.995590
40.728550 -73.996340
40.728920 -73.997100
40.728950 -73.997170
40.729310 -73.997880
40.730430 -74.000120
40.731060 -74.001410
40.755440 -73.962070
40.754930 -73.962430
40.754880 -73.962490
40.754860 -73.962550
40.709030 -74.016970
40.708770 -74.016060
40.709140 -74.015930
40.709330 -74.016760
40.709550 -74.017740
40.709550 -74.017800
40.709540 -74.017840
40.709500 -74.017880
40.709460 -74.017890
40.709410 -74.017900
40.709360 -74.017880
40.709330 -74.017840
40.709290 -74.017760
40.704060 -74.012570
40.704010 -74.011570
40.722540 -73.987090
40.722400 -73.987160
40.721220 -73.987760
40.720070 -73.988350
40.718840 -73.988990
40.718700 -73.989060
40.717890 -73.989470
40.716970 -73.989950
40.715790 -73.990550
40.714660 -73.991130
40.736000 -73.993610
40.735080 -73.991390
40.714130 -73.989330
40.714410 -73.990260
40.721810 -74.006430
40.721760 -74.005760
40.721730 -74.005450
40.721760 -74.005290
40.769210 -73.984760
40.770390 -73.987620
40.736610 -74.005240
40.736830 -74.003710
40.737060 -74.002130
40.737160 -74.001460
40.735970 -74.009910
40.736180 -74.008320
40.736430 -74.006620
40.865500 -73.927530
40.865560 -73.928060
40.865590 -73.928250
40.865630 -73.928420
40.813710 -73.962250
40.813950 -73.962160
40.814010 -73.962130
40.814090 -73.962100
40.814230 -73.962020
40.814360 -73.961930
40.814520 -73.961800
40.814800 -73.961610
40.814980 -73.961490
40.815140 -73.961390
40.815240 -73.961350
40.815370 -73.961310
40.815480 -73.961280
40.815680 -73.961230
40.815790 -73.961210
40.815890 -73.961200
40.815930 -73.961200
40.815990 -73.961200
40.816190 -73.961230
40.816260 -73.961250
40.816330 -73.961260
40.816380 -73.961260
40.816430 -73.961270
40.816470 -73.961270
40.816520 -73.961270
40.816570 -73.961260
40.816620 -73.961250
40.816670 -73.961240
40.816710 -73.961230
40.816810 -73.961210
40.816740 -73.961270
40.816690 -73.961330
40.816640 -73.961390
40.816590 -73.961440
40.816550 -73.961490
40.816520 -73.961530
40.816480 -73.961580
40.816450 -73.961640
40.816420 -73.961690
40.816370 -73.961760
40.816340 -73.961800
40.816310 -73.961850
40.816280 -73.961900
40.816220 -73.961990
40.816160 -73.962060
40.816070 -73.962160
40.815960 -73.962270
40.815850 -73.962350
40.815720 -73.962430
40.813210 -73.963750
40.813100 -73.963800
40.813070 -73.963820
40.813050 -73.963820
40.812970 -73.963850
40.812870 -73.963880
40.812780 -73.963900
40.812680 -73.963920
40.812590 -73.963930
40.812530 -73.963930
40.812310 -73.963930
40.811830 -73.963910
40.811700 -73.963930
40.811570 -73.963960
40.811510 -73.963980
40.811460 -73.964000
40.811330 -73.964010
40.816090 -73.961250
40.816120 -73.961280
40.816160 -73.961320
40.816200 -73.961350
40.816230 -73.961390
40.816250 -73.961440
40.816280 -73.961490
40.816290 -73.961540
40.816300 -73.961590
40.816300 -73.961650
40.816300 -73.961710
40.816290 -73.961770
40.816280 -73.961810
40.812490 -73.963910
40.812460 -73.963880
40.812440 -73.963860
40.812410 -73.963840
40.812360 -73.963820
40.812330 -73.963810
40.812290 -73.963780
40.812260 -73.963750
40.812230 -73.963680
40.812220 -73.963640
40.812210 -73.963580
40.812220 -73.963500
40.812220 -73.963440
40.812240 -73.963390
40.812250 -73.963340
40.812270 -73.963300
40.812300 -73.963260
40.792780 -73.977030
40.793320 -73.976570
40.793570 -73.976410
40.793660 -73.976370
40.793720 -73.976360
40.793800 -73.976340
40.793890 -73.976320
40.794030 -73.976300
40.794410 -73.976300
40.794550 -73.976280
40.794700 -73.976260
40.794900 -73.976200
40.795090 -73.976110
40.795380 -73.975880
40.795460 -73.975790
40.795520 -73.975720
40.795770 -73.975360
40.795870 -73.975290
40.838050 -73.946640
40.838550 -73.945850
40.838900 -73.945610
40.839230 -73.945540
40.839660 -73.945610
40.839900 -73.945530
40.840150 -73.945340
40.840680 -73.944750
40.841030 -73.944710
40.840100 -73.945710
40.839640 -73.946120
40.839120 -73.946330
40.838870 -73.946430
40.838620 -73.946590
40.838370 -73.946800
40.838210 -73.946970
40.830240 -73.949680
40.830960 -73.949460
40.831690 -73.949250
40.831840 -73.949280
40.831960 -73.949310
40.832090 -73.949360
40.832210 -73.949430
40.832330 -73.949520
40.832520 -73.949660
40.792950 -73.976970
40.793060 -73.976950
40.793200 -73.976940
40.793610 -73.976920
40.793780 -73.976920
40.793890 -73.976910
40.794000 -73.976890
40.794220 -73.976830
40.794410 -73.976770
40.794490 -73.976740
40.794610 -73.976690
40.794740 -73.976630
40.794900 -73.976540
40.795060 -73.976430
40.795240 -73.976300
40.795390 -73.976170
40.795450 -73.976110
40.795520 -73.975980
40.795730 -73.975530
40.795930 -73.975180
40.705440 -74.008000
40.705080 -74.010610
40.704990 -74.011550
40.705010 -74.012620
40.806390 -73.944300
40.805130 -73.945230
40.804510 -73.945690
40.777370 -73.974100
40.777290 -73.974130
40.776820 -73.974120
40.775680 -73.973980
40.775380 -73.974020
40.775100 -73.974130
40.775050 -73.974160
40.775010 -73.974190
40.774970 -73.974230
40.774930 -73.974270
40.774900 -73.974300
40.774850 -73.974370
40.774820 -73.974430
40.774780 -73.974510
40.774750 -73.974580
40.774710 -73.974760
40.794390 -73.959320
40.794320 -73.959230
40.794150 -73.959000
40.793950 -73.958730
40.793720 -73.958280
40.726150 -74.010820
40.726070 -74.009900
40.852620 -73.936520
40.852640 -73.936530
40.852670 -73.936530
40.852700 -73.936530
40.852730 -73.936530
40.853280 -73.936400
40.853350 -73.936380
40.853410 -73.936370
40.853480 -73.936370
40.853820 -73.936360
40.853950 -73.936360
40.854040 -73.936350
40.854150 -73.936320
40.854240 -73.936300
40.854860 -73.936060
40.854910 -73.936040
40.854980 -73.936010
40.855180 -73.935920
40.855310 -73.935850
40.855500 -73.935750
40.855610 -73.935680
40.855720 -73.935600
40.855920 -73.935460
40.856670 -73.934900
40.856710 -73.934870
40.856740 -73.934850
40.771020 -73.987150
40.772900 -73.985790
40.773520 -73.985340
40.774150 -73.984880
40.774790 -73.984390
40.776010 -73.983510
40.776600 -73.983080
40.776630 -73.983050
40.776670 -73.983030
40.777300 -73.982560
40.777630 -73.982330
40.777820 -73.982190
40.778250 -73.981870
40.719220 -73.976350
40.719040 -73.976430
40.718110 -73.976870
40.715690 -73.978080
40.715140 -73.978370
40.804670 -73.932220
40.804060 -73.932660
40.803420 -73.933080
40.724180 -73.990920
40.723980 -73.990980
40.723720 -73.990990
40.707960 -74.017770
40.708450 -74.017390
40.808470 -73.964960
40.808920 -73.964610
40.810370 -73.963470
40.810930 -73.963060
40.812250 -73.962100
40.815520 -73.959710
40.788580 -73.955270
40.788830 -73.955860
40.789010 -73.956260
40.789180 -73.956650
40.789230 -73.956770
40.789270 -73.956900
40.789150 -73.956730
40.789070 -73.956610
40.789010 -73.956540
40.788960 -73.956500
40.788920 -73.956460
40.788840 -73.956400
40.788760 -73.956350
40.788680 -73.956320
40.788580 -73.956300
40.788460 -73.956280
40.788330 -73.956260
40.788240 -73.956240
40.788210 -73.956230
40.788170 -73.956210
40.788130 -73.956180
40.788090 -73.956140
40.788050 -73.956100
40.788020 -73.956050
40.787960 -73.955910
40.787910 -73.955770
40.791890 -73.963350
40.792380 -73.964180
40.783220 -73.974550
40.729880 -73.989660
40.729900 -73.988910
40.801680 -73.961070
40.801620 -73.961100
40.801160 -73.961430
40.800530 -73.961890
40.799230 -73.962870
40.792700 -73.975090
40.792140 -73.973750
40.792060 -73.973570
40.791490 -73.972220
40.790290 -73.969390
40.789100 -73.966570
40.855150 -73.932090
40.854530 -73.932540
40.722350 -73.986210
40.722660 -73.987010
40.723270 -73.988450
40.724270 -73.990820
40.724610 -73.991630
40.724860 -73.992260
40.859010 -73.927620
40.859080 -73.927670
40.859540 -73.927970
40.860240 -73.928420
40.860860 -73.928810
40.862090 -73.929610
40.862150 -73.929650
40.763680 -73.993300
40.763420 -73.992700
40.762230 -73.989850
40.762200 -73.989800
40.761030 -73.987010
40.763150 -73.999790
40.763050 -73.999580
40.762120 -73.997380
40.761270 -73.995350
40.824780 -73.936680
40.824850 -73.936850
40.825890 -73.939350
40.826000 -73.939600
40.829650 -73.948280
40.829570 -73.948090
40.828390 -73.945280
40.827810 -73.943890
40.827340 -73.942780
40.713990 -74.004430
40.762290 -73.974450
40.761610 -73.972850
40.760960 -73.971310
40.760870 -73.971100
40.760250 -73.969620
40.759570 -73.968020
40.758630 -73.965780
40.757630 -73.963410
40.756680 -73.961160
40.792460 -73.964350
40.793120 -73.965890
40.793280 -73.966290
40.793360 -73.966500
40.793540 -73.967020
40.793960 -73.968030
40.794730 -73.969860
40.795290 -73.971220
40.819140 -73.937180
40.820310 -73.939940
40.820370 -73.940090
40.821540 -73.942860
40.823360 -73.947160
40.823930 -73.948530
40.824080 -73.948880
40.825110 -73.951340
40.825190 -73.951530
40.825820 -73.953010
40.704910 -74.017350
40.705010 -74.017300
40.705790 -74.017010
40.748500 -73.988700
40.748280 -73.988180
40.747160 -73.985490
40.728690 -73.989800
40.728110 -73.990230
40.752410 -73.978370
40.753090 -73.977870
40.802550 -73.942990
40.801930 -73.941500
40.713390 -73.998650
40.713310 -73.998910
40.713260 -73.999230
40.713200 -73.999700
40.712740 -74.002090
40.712660 -74.002360
40.712620 -74.002490
40.713940 -74.003020
40.714260 -74.002630
40.714290 -74.002600
40.714590 -74.002430
40.715170 -74.002130
40.710090 -73.989790
40.710760 -73.989870
40.750300 -73.983200
40.751700 -73.986390
40.875970 -73.909420
40.876600 -73.909490
40.826760 -73.937570
40.827250 -73.938690
40.830900 -73.947360
40.830820 -73.947170
40.829640 -73.944370
40.828780 -73.942330
40.828720 -73.942200
40.750730 -73.968370
40.751740 -73.970800
40.752690 -73.973040
40.848110 -73.930870
40.848730 -73.932330
40.849320 -73.933730
40.849840 -73.934960
40.708240 -73.999570
40.708380 -73.999380
40.708590 -73.999040
40.708810 -73.998490
40.708910 -73.998200
40.708980 -73.997830
40.709130 -73.996870
40.709200 -73.996230
40.709220 -73.996070
40.709240 -73.995960
40.709480 -73.994020
40.709780 -73.991940
40.709810 -73.991770
40.710420 -73.984650
40.710630 -73.982200
40.710730 -73.981630
40.702630 -74.008850
40.702360 -74.009280
40.702320 -74.009340
40.702140 -74.009740
40.702050 -74.009980
40.702010 -74.010100
40.701780 -74.011160
40.732470 -74.009860
40.733200 -74.009800
40.710980 -74.000510
40.711060 -74.000600
40.711160 -74.000690
40.711260 -74.000760
40.711380 -74.000810
40.711490 -74.000850
40.711610 -74.000870
40.711690 -74.000870
40.712170 -74.000860
40.712850 -74.000850
40.712990 -74.000850
40.806410 -73.942260
40.805730 -73.940640
40.805120 -73.939180
40.805000 -73.938900
40.804370 -73.937410
40.785290 -73.969340
40.786480 -73.972170
40.787680 -73.975010
40.788280 -73.976430
40.788360 -73.976600
40.703610 -74.014400
40.703580 -74.013220
40.703580 -74.013110
40.703560 -74.011880
40.703510 -74.011580
40.786600 -73.956710
40.785920 -73.955110
40.785290 -73.953610
40.785180 -73.953360
40.784560 -73.951880
40.783890 -73.950280
40.782940 -73.948030
40.781940 -73.945670
40.809600 -73.934910
40.809930 -73.934870
40.810190 -73.934810
40.810880 -73.934660
40.837550 -73.934060
40.837150 -73.934410
40.836760 -73.934690
40.836320 -73.934970
40.835920 -73.935270
40.835690 -73.935450
40.835400 -73.935700
40.834980 -73.936110
40.834800 -73.936320
40.814020 -73.934760
40.813980 -73.934680
40.813910 -73.934610
40.813780 -73.934580
40.812890 -73.934700
40.812370 -73.934760
40.812050 -73.934810
40.811690 -73.934880
40.814710 -73.934530
40.814460 -73.934540
40.814230 -73.934620
40.814080 -73.934720
40.784090 -73.958550
40.783410 -73.956940
40.782780 -73.955440
40.782670 -73.955190
40.782050 -73.953710
40.781380 -73.952120
40.780430 -73.949880
40.779430 -73.947510
40.778480 -73.945250
40.777490 -73.942910
40.728350 -73.990730
40.727400 -73.988530
40.726400 -73.986170
40.725470 -73.983950
40.724490 -73.981630
40.723500 -73.979280
40.722490 -73.976890
40.819770 -73.936720
40.820930 -73.939490
40.820990 -73.939640
40.822160 -73.942410
40.826420 -73.952530
40.825810 -73.951080
40.825730 -73.950890
40.824540 -73.948090
40.823970 -73.946720
40.823620 -73.945900
40.868770 -73.913350
40.868870 -73.913270
40.869440 -73.912840
40.871050 -73.911690
40.871870 -73.911080
40.871970 -73.911080
40.872250 -73.911200
40.872540 -73.911420
40.872750 -73.911630
40.872830 -73.911730
40.739400 -74.006440
40.740130 -74.005950
40.740260 -74.005860
40.740940 -74.005360
40.768580 -73.985230
40.767910 -73.985710
40.767220 -73.986220
40.766610 -73.986660
40.765960 -73.987130
40.765350 -73.987580
40.764720 -73.988040
40.764110 -73.988480
40.763470 -73.988950
40.762850 -73.989400
40.761600 -73.990310
40.760980 -73.990760
40.760350 -73.991220
40.759720 -73.991680
40.759100 -73.992130
40.860520 -73.919370
40.819700 -73.960140
40.858740 -73.930120
40.858770 -73.930030
40.859510 -73.928050
40.765810 -73.976190
40.765910 -73.976180
40.765970 -73.976200
40.766020 -73.976230
40.766100 -73.976330
40.766300 -73.976700
40.766420 -73.976840
40.766510 -73.976920
40.766600 -73.976980
40.766730 -73.977010
40.766810 -73.977010
40.766900 -73.976990
40.766970 -73.976950
40.767030 -73.976910
40.767120 -73.976820
40.767200 -73.976720
40.767760 -73.978730
40.767650 -73.978550
40.767470 -73.978190
40.767320 -73.977790
40.767220 -73.977410
40.767180 -73.977050
40.767180 -73.976870
40.767370 -73.976430
40.767460 -73.976320
40.767560 -73.976240
40.767700 -73.976150
40.767760 -73.976120
40.768190 -73.975900
40.768330 -73.975810
40.768430 -73.975750
40.723300 -74.002980
40.723440 -74.003830
40.803830 -73.942100
40.803190 -73.940590
40.803070 -73.940310
40.802440 -73.938820
40.801760 -73.937220
40.800790 -73.934910
40.809810 -73.958250
40.810000 -73.958710
40.811180 -73.961510
40.811250 -73.961680
40.805210 -73.947350
40.806380 -73.950120
40.806440 -73.950270
40.807550 -73.952900
40.808200 -73.954460
40.765250 -73.952090
40.765280 -73.952150
40.765410 -73.952470
40.766160 -73.954240
40.789160 -73.952740
40.788530 -73.951260
40.715520 -74.016670
40.715720 -74.016590
40.715870 -74.016530
40.716010 -74.016490
40.716150 -74.016470
40.716320 -74.016460
40.716640 -74.016420
40.716880 -74.016340
40.717140 -74.016210
40.717350 -74.016070
40.717520 -74.015920
40.717670 -74.015760
40.718120 -74.014990
40.751780 -74.008010
40.751710 -74.007810
40.750790 -74.005630
40.749590 -74.002780
40.749010 -74.001410
40.748400 -73.999930
40.748370 -73.999870
40.747200 -73.997090
40.744800 -73.991410
40.744560 -73.990840
40.744510 -73.990730
40.743790 -73.989010
40.713640 -74.003630
40.715430 -74.007540
40.716010 -74.008820
40.716180 -74.009200
40.716920 -74.010830
40.747760 -73.982950
40.747140 -73.981440
40.747050 -73.981220
40.746400 -73.979720
40.745720 -73.978120
40.745400 -73.977360
40.744770 -73.975880
40.744500 -73.975220
40.745920 -73.986390
40.745240 -73.984790
40.794690 -73.936360
40.793760 -73.934100
40.778160 -73.974530
40.779360 -73.977370
40.780560 -73.980210
40.722300 -73.997120
40.722270 -73.997180
40.722250 -73.997210
40.721680 -73.997690
40.703320 -74.010200
40.703700 -74.010600
40.726740 -74.008960
40.726600 -74.007430
40.876620 -73.909570
40.876650 -73.909650
40.877350 -73.910600
40.821440 -73.954270
40.822250 -73.956150
40.814040 -73.936680
40.815400 -73.939900
40.816570 -73.942690
40.816630 -73.942840
40.817800 -73.945590
40.779780 -73.970790
40.780080 -73.971250
40.716980 -73.994460
40.717270 -73.995420
40.717590 -73.996320
40.718440 -73.998750
40.718680 -73.999420
40.716740 -73.993700
40.716460 -73.992840
40.716230 -73.992010
40.714460 -73.981650
40.715370 -73.981170
40.715920 -73.980870
40.862350 -73.922450
40.862420 -73.922500
40.862490 -73.922540
40.863410 -73.923130
40.866330 -73.925000
40.867130 -73.925510
40.867760 -73.925910
40.746920 -73.971220
40.747560 -73.972730
40.747920 -73.973590
40.852890 -73.932720
40.852380 -73.931490
40.851830 -73.930200
40.851790 -73.930100
40.851480 -73.929370
40.851370 -73.929110
40.851170 -73.928640
40.850690 -73.927470
40.853200 -73.934190
40.853470 -73.935130
40.853800 -73.936270
40.719690 -74.005940
40.719770 -74.006800
40.719950 -74.008580
40.720110 -74.010180
40.720190 -74.010980
40.720300 -74.012050
40.720330 -74.012280
40.782830 -73.959460
40.782720 -73.959210
40.782150 -73.957860
40.781520 -73.956360
40.781410 -73.956110
40.780790 -73.954630
40.780120 -73.953030
40.779170 -73.950790
40.778170 -73.948420
40.777220 -73.946170
40.776230 -73.943810
40.738040 -73.996330
40.740440 -74.002010
40.741610 -74.004780
40.741640 -74.004860
40.867020 -73.917040
40.867580 -73.918410
40.868110 -73.919750
40.747870 -73.971240
40.748360 -73.970890
40.792240 -73.944180
40.792910 -73.945780
40.793530 -73.947270
40.793650 -73.947530
40.794960 -73.950610
40.794280 -73.949010
40.740880 -73.987980
40.742140 -73.987050
40.868850 -73.911430
40.869490 -73.912950
40.870180 -73.914590
40.870220 -73.914690
40.870280 -73.914820
40.870360 -73.915010
40.870410 -73.915130
40.719530 -73.983850
40.719980 -73.983640
40.744000 -73.985690
40.743320 -73.984070
40.742640 -73.982460
40.741970 -73.980850
40.741380 -73.979460
40.741020 -73.978610
40.740020 -73.976250
40.740440 -73.977310
40.789730 -73.966100
40.790930 -73.968930
40.792120 -73.971760
40.792700 -73.973120
40.792770 -73.973290
40.793330 -73.974630
40.716430 -73.982580
40.715880 -73.982850
40.844840 -73.935180
40.845430 -73.936570
40.845940 -73.937800
40.846190 -73.938450
40.846510 -73.940060
40.714820 -73.977560
40.715440 -73.977250
40.774280 -73.977370
40.775470 -73.980200
40.776260 -73.982020
40.776350 -73.982250
40.776610 -73.982890
40.776620 -73.982950
40.770080 -73.951390
40.759510 -73.999260
40.734670 -73.994580
40.733920 -73.992790
40.732750 -73.990020
40.731960 -73.988140
40.731680 -73.987480
40.731010 -73.985900
40.730010 -73.983530
40.729080 -73.981320
40.728100 -73.978990
40.727100 -73.976680
40.864110 -73.921250
40.864800 -73.919360
40.865100 -73.918440
40.714640 -73.997150
40.714810 -73.998040
40.708490 -74.015190
40.708460 -74.015110
40.708230 -74.014370
40.707970 -74.013580
40.707770 -74.012950
40.707450 -74.011940
40.749110 -73.988250
40.751230 -73.993270
40.751300 -73.993430
40.751520 -73.993940
40.751690 -73.994350
40.752680 -73.996700
40.752720 -73.996780
40.753410 -73.998420
40.747770 -73.985040
40.749030 -73.988060
40.797470 -73.948790
40.798830 -73.952010
40.799000 -73.952400
40.799980 -73.954780
40.800060 -73.954950
40.801830 -73.959130
40.803630 -73.963380
40.804780 -73.966130
40.804860 -73.966310
40.805450 -73.967720
40.807300 -73.964300
40.807380 -73.964480
40.808230 -73.966530
40.801330 -73.950180
40.802360 -73.952580
40.802490 -73.952930
40.802560 -73.953120
40.804340 -73.957290
40.806130 -73.961540
40.862210 -73.917610
40.862350 -73.917920
40.862390 -73.918010
40.862430 -73.918110
40.863120 -73.919740
40.863160 -73.919840
40.717710 -74.014060
40.717100 -74.014540
40.716490 -74.015020
40.716200 -74.015240
40.716190 -74.015260
40.716150 -74.015280
40.716100 -74.015280
40.716050 -74.015260
40.716020 -74.015220
40.716000 -74.015160
40.716010 -74.015100
40.716030 -74.015050
40.716070 -74.015000
40.716090 -74.014990
40.716370 -74.014770
40.716990 -74.014290
40.732310 -74.001660
40.836460 -73.937020
40.836510 -73.937130
40.837220 -73.938830
40.837710 -73.939990
40.838400 -73.941630
40.838480 -73.941820
40.839170 -73.943460
40.837310 -73.946810
40.836380 -73.944570
40.835990 -73.943650
40.835910 -73.943460
40.834720 -73.940650
40.739500 -73.984750
40.738840 -73.985230
40.763990 -73.958780
40.764980 -73.961140
40.765930 -73.963380
40.766600 -73.964980
40.767230 -73.966460
40.767320 -73.966690
40.767960 -73.968210
40.768640 -73.969820
40.752840 -73.957410
40.753130 -73.958020
40.753460 -73.958560
40.720560 -74.005060
40.720040 -74.003910
40.720400 -74.006420
40.720050 -74.005650
40.719460 -74.004370
40.718300 -74.001830
40.717930 -74.000980
40.717610 -74.000270
40.717330 -73.999440
40.794780 -73.964300
40.795460 -73.963800
40.796080 -73.963340
40.796720 -73.962880
40.797340 -73.962420
40.816530 -73.934890
40.817190 -73.936360
40.817900 -73.938080
40.819050 -73.940830
40.819120 -73.941000
40.820290 -73.943770
40.821260 -73.946070
40.821750 -73.947240
40.822100 -73.948080
40.822680 -73.949450
40.823110 -73.950490
40.823860 -73.952250
40.823940 -73.952440
40.824730 -73.954340
40.757840 -73.954820
40.757550 -73.954000
40.840470 -73.936450
40.841080 -73.937920
40.842810 -73.942010
40.843190 -73.942940
40.759380 -73.953280
40.758930 -73.952200
40.798570 -73.973150
40.797810 -73.971330
40.797250 -73.970000
40.797180 -73.969830
40.796680 -73.968660
40.796660 -73.968570
40.796640 -73.968470
40.796620 -73.968370
40.796600 -73.968320
40.796590 -73.968270
40.796100 -73.967080
40.795470 -73.965610
40.795390 -73.965450
40.794190 -73.962850
40.801050 -73.971220
40.800960 -73.971010
40.800330 -73.969500
40.799820 -73.968310
40.799730 -73.968100
40.799120 -73.966650
40.797930 -73.963820
40.796740 -73.960990
40.715170 -74.000520
40.715290 -74.000780
40.715740 -74.001680
40.772550 -73.945170
40.772640 -73.945390
40.772980 -73.946190
40.795030 -73.933170
40.799980 -73.958630
40.800580 -73.960050
40.802360 -73.964290
40.803530 -73.967050
40.803610 -73.967240
40.804200 -73.968640
40.763960 -73.946780
40.763890 -73.946660
40.763870 -73.946610
40.763590 -73.971400
40.755880 -73.961210
40.756050 -73.961620
40.757730 -73.959450
40.758370 -73.958980
40.711590 -73.994260
40.711660 -73.993490
40.711700 -73.992950
40.711750 -73.992450
40.711770 -73.992180
40.711950 -74.006050
40.711940 -74.005860
40.711970 -74.005590
40.711990 -74.005410
40.712000 -74.005300
40.711980 -74.005210
40.711950 -74.005130
40.711910 -74.005070
40.711750 -74.004830
40.710960 -74.003650
40.710790 -74.003360
40.710050 -74.002480
40.834660 -73.944370
40.833480 -73.941560
40.833090 -73.940650
40.832720 -73.939770
40.832680 -73.939670
40.709870 -74.007050
40.728360 -74.002770
40.725870 -73.997570
40.726230 -73.998300
40.727000 -73.999860
40.728100 -74.002090
40.705330 -74.009990
40.705790 -74.009860
40.706370 -74.009500
40.706950 -74.008990
40.707720 -74.008260
40.707970 -74.008000
40.709550 -74.006430
40.709910 -74.006070
40.709940 -74.006040
40.710390 -74.005590
40.812690 -73.953120
40.813490 -73.953110
40.814300 -73.953070
40.741540 -73.989590
40.741360 -73.989130
40.741300 -73.989000
40.740190 -73.986350
40.738820 -73.983140
40.737880 -73.980900
40.785340 -73.957630
40.784660 -73.956030
40.784030 -73.954530
40.783920 -73.954280
40.783300 -73.952800
40.782620 -73.951200
40.781680 -73.948960
40.780670 -73.946600
40.820320 -73.957800
40.820600 -73.958460
40.783180 -73.984460
40.782390 -73.982590
40.781800 -73.981170
40.781710 -73.980980
40.781180 -73.979750
40.779990 -73.976910
40.778800 -73.974060
40.757280 -73.978110
40.756600 -73.976500
40.760360 -73.951800
40.768620 -73.942670
40.768750 -73.942800
40.769080 -73.943120
40.770740 -73.942760
40.859940 -73.926780
40.860560 -73.927190
40.860650 -73.927300
40.860730 -73.927410
40.862520 -73.928540
40.710720 -73.991950
40.710830 -73.992150
40.710700 -73.992100
40.760710 -74.002060
40.787900 -73.953670
40.727260 -73.982650
40.728190 -73.984870
40.729190 -73.987230
40.730130 -73.989480
40.730380 -73.990080
40.730570 -73.990540
40.724280 -73.975590
40.725290 -73.977990
40.726280 -73.980330
40.732160 -73.994290
40.734030 -73.995050
40.735390 -73.998270
40.736410 -74.001940
40.736170 -74.003520
40.735960 -74.005050
40.735840 -74.005960
40.735720 -74.006790
40.735500 -74.008370
40.735290 -74.009970
40.825640 -73.939860
40.826330 -73.938450
40.827570 -73.935890
40.827660 -73.935540
40.827660 -73.935440
40.827640 -73.935370
40.827610 -73.935340
40.827570 -73.935320
40.834150 -73.939240
40.834220 -73.939190
40.834530 -73.938960
40.835130 -73.938530
40.835190 -73.938480
40.822900 -73.938050
40.822970 -73.938220
40.825330 -73.943810
40.825940 -73.945270
40.826520 -73.946640
40.827700 -73.949450
40.827780 -73.949640
40.828290 -73.950850
40.772220 -73.990000
40.769920 -73.984450
40.769840 -73.984320
40.746490 -73.983890
40.744170 -74.008530
40.744100 -74.008520
40.744050 -74.008510
40.744020 -74.008490
40.743990 -74.008480
40.743960 -74.008430
40.743940 -74.008380
40.743470 -74.007230
40.742280 -74.004410
40.742250 -74.004350
40.741080 -74.001550
40.738680 -73.995870
40.737330 -73.992650
40.739860 -73.977730
40.739950 -73.974150
40.797450 -73.946700
40.796820 -73.945220
40.796710 -73.944950
40.796080 -73.943470
40.795410 -73.941860
40.794460 -73.939620
40.793470 -73.937250
40.860830 -73.928880
40.860410 -73.930030
40.860640 -73.930770
40.797880 -73.919870
40.797680 -73.920120
40.797540 -73.920370
40.797490 -73.920630
40.797490 -73.920900
40.797520 -73.921220
40.797600 -73.921500
40.797830 -73.922000
40.798150 -73.922720
40.798480 -73.923380
40.760410 -73.975830
40.761420 -73.978220
40.761770 -73.979050
40.815180 -73.958830
40.815880 -73.960560
40.725760 -73.997660
40.724630 -73.998580
40.723420 -73.999600
40.722180 -74.000650
40.721250 -74.001440
40.719900 -74.002600
40.867630 -73.916580
40.867680 -73.916700
40.868480 -73.918560
40.717340 -74.015070
40.845300 -73.938260
40.711110 -74.000380
40.711630 -73.999840
40.745140 -73.970890
40.745430 -73.971540
40.745680 -73.972120
40.745900 -73.972650
40.746320 -73.973640
40.729550 -73.996550
40.730150 -73.996060
40.795160 -73.931360
40.795730 -73.932660
40.772090 -73.946110
40.732310 -74.000510
40.731620 -73.999100
40.731300 -73.988620
40.732600 -73.987680
40.733290 -73.987180
40.734610 -73.986210
40.735200 -73.985780
40.736370 -73.984930
40.737540 -73.984080
40.738160 -73.983630
40.739490 -73.982660
40.807990 -73.931450
40.807190 -73.933270
40.760310 -73.952210
40.760500 -73.952220
40.761000 -73.951840
40.761660 -73.951560
40.763400 -73.950080
40.763570 -73.949830
40.764190 -73.949190
40.764160 -73.949040
40.765840 -73.947730
40.766930 -73.946850
40.767640 -73.946250
40.768090 -73.945920
40.768150 -73.945690
40.768370 -73.945560
40.768720 -73.945340
40.754000 -73.958040
40.817850 -73.947660
40.817170 -73.946050
40.816000 -73.943280
40.815950 -73.943140
40.814780 -73.940360
40.821700 -73.956790
40.820830 -73.954720
40.820740 -73.954520
40.819560 -73.951730
40.778240 -73.966740
40.778320 -73.967050
40.778360 -73.967180
40.778460 -73.967440
40.778540 -73.967640
40.779000 -73.968700
40.779110 -73.968950
40.788480 -73.967030
40.789670 -73.969850
40.790860 -73.972680
40.791430 -73.974030
40.791500 -73.974210
40.792070 -73.975550
40.792720 -73.977080
40.853110 -73.927220
40.853720 -73.928690
40.854310 -73.930080
40.854810 -73.931330
40.855130 -73.932030
40.855330 -73.933310
40.855560 -73.934200
40.855580 -73.934260
40.732610 -73.998270
40.770950 -73.990930
40.772100 -73.993680
40.769300 -73.995070
40.769220 -73.994860
40.794280 -73.951110
40.793600 -73.949500
40.792980 -73.948020
40.792870 -73.947750
40.792240 -73.946270
40.791570 -73.944670
40.790620 -73.942430
40.789620 -73.940060
40.788680 -73.937820
40.774680 -73.974880
40.772700 -73.967620
40.772740 -73.967770
40.772800 -73.968020
40.716170 -73.975730
40.716980 -73.975260
40.717330 -73.975080
40.717850 -73.974870
40.718060 -73.974830
40.718330 -73.974790
40.718530 -73.974750
40.718690 -73.974730
40.718840 -73.974740
40.730880 -73.973520
40.730680 -73.973330
40.730080 -73.972590
40.729880 -73.972400
40.729730 -73.972250
40.729530 -73.972110
40.729300 -73.971990
40.729250 -73.971970
40.729050 -73.971880
40.728810 -73.971820
40.728590 -73.971790
40.728290 -73.971800
40.727990 -73.971810
40.727680 -73.971860
40.727000 -73.971970
40.726680 -73.972030
40.726360 -73.972130
40.725560 -73.972530
40.724990 -73.972880
40.724130 -73.973410
40.723040 -73.974100
40.722550 -73.974380
40.722060 -73.974560
40.721590 -73.974650
40.720940 -73.974720
40.720440 -73.974790
40.719060 -73.974950
40.778930 -73.943420
40.778420 -73.943190
40.777870 -73.942970
40.777340 -73.942790
40.777030 -73.942700
40.810310 -73.943620
40.811470 -73.946400
40.811540 -73.946550
40.811970 -73.947540
40.812720 -73.949300
40.813150 -73.950350
40.716440 -73.988360
40.717400 -73.987870
40.718220 -73.987460
40.829440 -73.941940
40.830260 -73.943910
40.831440 -73.946720
40.831520 -73.946910
40.832650 -73.949610
40.713740 -73.993940
40.746530 -73.985940
40.747190 -73.987510
40.747530 -73.988300
40.747890 -73.989150
40.749100 -73.992000
40.750290 -73.994840
40.750460 -73.995250
40.751450 -73.997600
40.770380 -73.948110
40.771070 -73.947580
40.856360 -73.924850
40.856580 -73.924730
40.856800 -73.924670
40.856990 -73.924670
40.857150 -73.924680
40.857300 -73.924720
40.857440 -73.924770
40.857600 -73.924840
40.857760 -73.924930
40.857890 -73.925030
40.857950 -73.925080
40.858060 -73.925200
40.858120 -73.925310
40.858160 -73.925400
40.858200 -73.925540
40.858220 -73.925680
40.858230 -73.925840
40.858210 -73.925990
40.858190 -73.926140
40.858160 -73.926240
40.858090 -73.926350
40.858020 -73.926470
40.857940 -73.926560
40.857870 -73.926620
40.857790 -73.926660
40.857710 -73.926710
40.857650 -73.926760
40.857570 -73.926850
40.857480 -73.926930
40.857240 -73.927270
40.857160 -73.927380
40.856980 -73.927920
40.732840 -74.002120
40.723120 -74.006230
40.722970 -74.005050
40.722710 -74.004440
40.722380 -74.003760
40.835160 -73.945600
40.834280 -73.945350
40.848390 -73.937680
40.847870 -73.936400
40.733970 -74.000370
40.733790 -74.000320
40.733760 -74.000320
40.733730 -74.000330
40.703110 -74.013000
40.703040 -74.012980
40.702570 -74.012840
40.801150 -73.959630
40.801300 -73.959980
40.708730 -74.013260
40.709060 -74.014050
40.709410 -74.014870
40.801410 -73.934450
40.802390 -73.936770
40.803070 -73.938370
40.803690 -73.939850
40.803810 -73.940130
40.804450 -73.941650
40.756650 -73.978560
40.758010 -73.981790
40.758300 -73.982470
40.759210 -73.984630
40.759390 -73.985060
40.760400 -73.987470
40.761580 -73.990260
40.762800 -73.993150
40.763040 -73.993730
40.731050 -73.999580
40.729940 -73.997360
40.859300 -73.931330
40.859340 -73.931120
40.859390 -73.930910
40.859390 -73.930760
40.837780 -73.944010
40.837240 -73.942730
40.837160 -73.942540
40.836110 -73.940030
40.834880 -73.937750
40.834930 -73.937850
40.835670 -73.939570
40.835820 -73.939880
40.710080 -73.994100
40.808110 -73.960090
40.806320 -73.955840
40.805020 -73.952760
40.792850 -73.967520
40.794040 -73.970360
40.794610 -73.971680
40.794710 -73.971910
40.735300 -74.000350
40.735120 -74.001570
40.734890 -74.003150
40.734660 -74.004680
40.734430 -74.006180
40.711000 -73.980550
40.710870 -73.982340
40.715400 -73.979220
40.714890 -73.979490
40.713970 -73.979960
40.760290 -73.951670
40.768680 -73.942590
40.769290 -73.941660
40.769310 -73.941630
40.769670 -73.941260
40.769970 -73.941100
40.755690 -73.954370
40.755600 -73.954550
40.755420 -73.954770
40.755030 -73.955130
40.753520 -73.956530
40.752930 -73.957200
40.752860 -73.957290
40.752850 -73.957350
40.764980 -73.945790
40.765160 -73.945640
40.766040 -73.944820
40.766640 -73.944410
40.780480 -73.944200
40.781300 -73.946130
40.782310 -73.948500
40.783250 -73.950740
40.783930 -73.952340
40.784560 -73.953820
40.784670 -73.954070
40.785300 -73.955560
40.785980 -73.957160
40.718270 -74.008880
40.717660 -74.007530
40.717080 -74.006240
40.715770 -74.003420
40.715590 -74.003020
40.759780 -73.976280
40.759110 -73.974680
40.758460 -73.973140
40.758370 -73.972920
40.758200 -73.972530
40.757740 -73.971450
40.757070 -73.969850
40.756120 -73.967600
40.755130 -73.965240
40.799700 -73.971920
40.799060 -73.970410
40.798500 -73.969110
40.798430 -73.968920
40.797860 -73.967570
40.795480 -73.961900
40.715640 -73.977910
40.715240 -73.976570
40.771540 -73.946740
40.771690 -73.947120
40.728000 -73.999000
40.728060 -73.998950
40.728100 -73.998920
40.728730 -73.998400
40.757070 -74.001080
40.756560 -73.999880
40.706170 -74.014130
40.706650 -74.015900
40.706440 -74.015110
40.754780 -73.979930
40.754100 -73.978330
40.753710 -73.977430
40.752740 -73.975100
40.752060 -73.973500
40.751120 -73.971260
40.750080 -73.968830
40.752190 -73.981820
40.751520 -73.980220
40.834830 -73.939690
40.719080 -74.006430
40.719100 -74.006960
40.718990 -74.006820
40.718860 -74.006590
40.717740 -74.004150
40.717160 -74.002950
40.717090 -74.002810
40.716730 -74.002070
40.752790 -73.965200
40.753310 -73.964810
40.730950 -73.990440
40.731990 -73.990210
40.733520 -73.989860
40.733680 -73.989840
40.733860 -73.989830
40.734040 -73.989840
40.734220 -73.989860
40.734400 -73.989910
40.734460 -73.989910
40.729890 -73.990720
40.785800 -73.972670
40.787000 -73.975500
40.787620 -73.977000
40.787680 -73.977170
40.788190 -73.978370
40.789250 -73.980850
40.845160 -73.924290
40.844900 -73.923830
40.723630 -73.981430
40.722890 -73.979730
40.725790 -73.986620
40.726790 -73.988980
40.727700 -73.991210
40.723880 -73.982080
40.724860 -73.984400
40.743090 -73.974010
40.743640 -73.975320
40.743740 -73.975540
40.743970 -73.976060
40.744100 -73.976370
40.745050 -73.978600
40.745730 -73.980200
40.746390 -73.981740
40.798400 -73.952330
40.799910 -73.951210
40.799950 -73.951190
40.800720 -73.950630
40.800830 -73.950540
40.727520 -73.991470
40.727700 -73.991350
40.727850 -73.991260
40.728150 -73.991020
40.728400 -73.990830
40.728530 -73.990610
40.738620 -73.986630
40.738900 -73.987300
40.739830 -73.989570
40.740250 -73.990520
40.724660 -73.996300
40.724400 -73.995880
40.867770 -73.923730
40.867810 -73.923620
40.868490 -73.921700
40.868960 -73.920410
40.869000 -73.920320
40.706900 -74.015810
40.707310 -74.015650
40.789200 -73.954810
40.788530 -73.953210
40.787900 -73.951720
40.857160 -73.928230
40.857420 -73.928910
40.857440 -73.929040
40.857430 -73.929180
40.857370 -73.929770
40.857300 -73.930410
40.857220 -73.930720
40.856850 -73.931470
40.856600 -73.932020
40.856600 -73.932200
40.856710 -73.932630
40.725610 -73.991990
40.725580 -73.991900
40.724920 -73.990340
40.723940 -73.987960
40.742810 -73.988640
40.743040 -73.989150
40.743470 -73.990210
40.743740 -73.990840
40.744180 -73.991870
40.746580 -73.997550
40.747730 -74.000330
40.747760 -74.000390
40.748970 -74.003230
40.750170 -74.006070
40.868680 -73.923430
40.868750 -73.923470
40.868790 -73.923500
40.868830 -73.923550
40.868880 -73.923600
40.868940 -73.923690
40.868960 -73.923730
40.868970 -73.923790
40.868980 -73.923870
40.868990 -73.923950
40.868990 -73.924010
40.868970 -73.924110
40.868940 -73.924260
40.868870 -73.924550
40.868810 -73.924860
40.868750 -73.925130
40.868620 -73.925710
40.868580 -73.925890
40.868530 -73.926060
40.868460 -73.926230
40.868260 -73.926570
40.868100 -73.926790
40.867950 -73.926980
40.867350 -73.927840
40.866740 -73.928720
40.865940 -73.929850
40.764890 -73.972550
40.764970 -73.972670
40.765040 -73.972810
40.765090 -73.972950
40.765120 -73.973090
40.714480 -73.991220
40.714420 -73.992130
40.795630 -73.940480
40.795070 -73.939180
40.794940 -73.938900
40.794580 -73.938070
40.815780 -73.956580
40.815580 -73.956820
40.815550 -73.956910
40.815150 -73.957820
40.817430 -73.955590
40.781780 -73.985080
40.781120 -73.983530
40.780310 -73.981630
40.780240 -73.981440
40.779920 -73.980670
40.778720 -73.977830
40.777530 -73.974990
40.721370 -73.997430
40.721530 -73.997350
40.722220 -73.997080
40.722230 -73.997090
40.822170 -73.952100
40.708540 -73.999620
40.708600 -73.999970
40.708690 -74.000290
40.708760 -74.000460
40.708830 -74.000620
40.708910 -74.000770
40.711010 -74.010800
40.711530 -74.010460
40.712060 -74.010150
40.712720 -74.009660
40.750280 -73.981120
40.749650 -73.979620
40.749550 -73.979400
40.748920 -73.977880
40.748240 -73.976280
40.747880 -73.975420
40.747290 -73.974040
40.746940 -73.973190
40.746520 -73.972210
40.746290 -73.971670
40.781950 -73.975480
40.783140 -73.978320
40.783810 -73.979900
40.783890 -73.980080
40.853380 -73.937430
40.853520 -73.938300
40.853530 -73.938370
40.850490 -73.929130
40.850860 -73.930010
40.851100 -73.930600
40.773490 -73.989090
40.773790 -73.989770
40.770510 -73.982040
40.770600 -73.982260
40.771080 -73.983400
40.711950 -73.989850
40.712640 -73.989970
40.713380 -73.990120
40.714050 -73.990200
40.719470 -73.998170
40.718980 -73.998390
40.717550 -73.999310
40.716540 -73.999930
40.715570 -74.000580
40.714370 -74.000450
40.775600 -73.944270
40.775810 -73.944760
40.776600 -73.946630
40.777550 -73.948880
40.778550 -73.951240
40.779490 -73.953490
40.780170 -73.955090
40.780790 -73.956560
40.780900 -73.956810
40.781530 -73.958310
40.782210 -73.959920
40.738660 -73.975220
40.738180 -73.974130
40.773620 -73.945720
40.773210 -73.944760
40.859360 -73.931460
40.859520 -73.931970
40.859530 -73.932010
40.859540 -73.932060
40.859540 -73.932100
40.859530 -73.932130
40.859530 -73.932160
40.859520 -73.932190
40.737360 -73.996840
40.715800 -73.994870
40.715870 -73.994870
40.716490 -73.994720
40.848690 -73.930450
40.849300 -73.931910
40.849890 -73.933310
40.850410 -73.934540
40.850770 -73.935420
40.739080 -73.991370
40.740440 -73.994590
40.742830 -74.000270
40.744010 -74.003060
40.744030 -74.003110
40.745230 -74.005960
40.754150 -73.980390
40.754950 -73.982300
40.755510 -73.983620
40.871070 -73.911780
40.871670 -73.913170
40.871710 -73.913270
40.871790 -73.913450
40.764750 -73.947140
40.765040 -73.947610
40.765590 -73.947120
40.766150 -73.946620
40.765910 -73.946100
40.745790 -73.974300
40.745820 -73.974250
40.745830 -73.974210
40.745840 -73.974160
40.745840 -73.974070
40.748170 -73.972280
40.740390 -73.979070
40.740750 -73.979910
40.741350 -73.981310
40.741560 -73.981810
40.742020 -73.982910
40.742700 -73.984520
40.743380 -73.986140
40.868160 -73.911910
40.714590 -73.998120
40.714410 -73.998120
40.714310 -73.997880
40.714090 -73.997700
40.704670 -74.008120
40.704280 -74.007670
40.703750 -74.007040
40.775540 -73.982280
40.775440 -73.982060
40.774850 -73.980650
40.773650 -73.977820
40.843560 -73.934200
40.844200 -73.935650
40.844780 -73.937040
40.845400 -73.938540
40.845430 -73.938670
40.845450 -73.938810
40.846040 -73.940240
40.841060 -73.936020
40.841670 -73.937490
40.842260 -73.938880
40.842430 -73.939250
40.843430 -73.941630
40.843900 -73.942690
40.730940 -74.006730
40.730790 -74.005290
40.731120 -74.004220
40.866430 -73.930460
40.867250 -73.929340
40.757360 -73.960670
40.758030 -73.960180
40.758660 -73.959720
40.775040 -73.965140
40.774370 -73.963540
40.773730 -73.962030
40.773630 -73.961790
40.773010 -73.960310
40.772330 -73.958710
40.771390 -73.956470
40.770400 -73.954100
40.769450 -73.951850
40.714180 -73.988700
40.713510 -73.988600
40.712760 -73.988480
40.738130 -74.002030
40.738130 -74.003870
40.738130 -74.004170
40.738130 -74.006470
40.738140 -74.008150
40.738140 -74.009570
40.705230 -74.004740
40.705790 -74.005520
40.706140 -74.006020
40.836560 -73.939340
40.836640 -73.939410
40.836980 -73.940190
40.835690 -73.937380
40.835730 -73.937480
40.836470 -73.939240
40.851200 -73.929580
40.851040 -73.929700
40.810870 -73.958850
40.811810 -73.961050
40.811880 -73.961220
40.812620 -73.963010
40.808830 -73.954000
40.725910 -74.008340
40.724220 -74.008640
40.828030 -73.942500
40.828300 -73.943140
40.829010 -73.944830
40.830190 -73.947630
40.830270 -73.947820
40.864540 -73.931020
40.863870 -73.931430
40.726480 -73.977130
40.727460 -73.979460
40.728440 -73.981790
40.729370 -73.983990
40.730360 -73.986390
40.731030 -73.987970
40.733300 -73.993320
40.722280 -73.986270
40.723000 -73.985750
40.723640 -73.985280
40.724260 -73.984830
40.726050 -73.983530
40.846790 -73.931830
40.847410 -73.933300
40.847990 -73.934690
40.848520 -73.935920
40.721560 -73.983770
40.722010 -73.983440
40.722670 -73.982960
40.723270 -73.982520
40.725070 -73.981210
40.725680 -73.980760
40.726860 -73.979900
40.729440 -73.978030
40.726940 -73.994730
40.726640 -73.994120
40.761240 -73.963880
40.762180 -73.966120
40.720650 -73.981310
40.720800 -73.981220
40.721020 -73.981080
40.800660 -73.958490
40.727600 -74.002510
40.807610 -73.967010
40.806740 -73.964940
40.806660 -73.964760
40.806290 -73.963860
40.805880 -73.962890
40.805510 -73.961990
40.801530 -73.952550
40.801860 -73.953370
40.801950 -73.953560
40.803710 -73.957750
40.847340 -73.933350
40.850500 -73.931040
40.851310 -73.930440
40.852470 -73.929600
40.853100 -73.929140
40.854320 -73.928250
40.856410 -73.926730
40.856450 -73.926730
40.856600 -73.926730
40.856750 -73.926790
40.856880 -73.926920
40.857040 -73.927200
40.839290 -73.939230
40.739410 -74.005910
40.739380 -74.007900
40.739380 -74.008050
40.739350 -74.008150
40.739350 -74.009230
40.739370 -74.009410
40.739360 -74.009570
40.739270 -74.009720
40.719860 -73.978780
40.720030 -73.978690
40.733340 -73.983170
40.735980 -73.989450
40.734010 -73.984770
40.729070 -73.973050
40.861450 -73.917710
40.861770 -73.918460
40.752190 -73.999370
40.752500 -73.999160
40.753060 -73.998760
40.753240 -73.998620
40.753370 -73.998510
40.753500 -73.998430
40.753630 -73.998390
40.753750 -73.998350
40.753860 -73.998310
40.753990 -73.998260
40.754110 -73.998190
40.754270 -73.998090
40.754380 -73.998000
40.754530 -73.997890
40.798500 -73.967110
40.799050 -73.968460
40.799140 -73.968650
40.796110 -73.961440
40.764320 -73.977190
40.765050 -73.978920
40.766250 -73.981780
40.766280 -73.981840
40.768020 -73.970280
40.767340 -73.968660
40.808740 -73.959630
40.810750 -73.964420
40.802590 -73.945050
40.803950 -73.948270
40.805110 -73.951020
40.805180 -73.951180
40.805870 -73.952800
40.764910 -73.955160
40.765860 -73.957410
40.766860 -73.959770
40.767800 -73.962010
40.768480 -73.963610
40.769100 -73.965090
40.769200 -73.965320
40.769840 -73.966840
40.770510 -73.968440
40.741390 -74.008760
40.741280 -74.008790
40.734980 -73.979900
40.734420 -73.980300
40.733250 -73.981150
40.731350 -73.982550
40.730650 -73.983060
40.726980 -73.985750
40.725200 -73.987050
40.724580 -73.987500
40.723310 -73.988420
40.722980 -73.988540
40.801750 -73.931200
40.802460 -73.930700
40.800160 -73.935370
40.801130 -73.937680
40.801810 -73.939280
40.802430 -73.940770
40.802550 -73.941050
40.803190 -73.942560
40.720370 -74.003250
40.721620 -74.002200
40.722550 -74.001400
40.723790 -74.000360
40.725000 -73.999340
40.726120 -73.998400
40.729180 -73.995810
40.729770 -73.995300
40.731280 -73.994030
40.839520 -73.936120
40.839860 -73.936900
40.706940 -74.013510
40.707110 -74.013960
40.731200 -73.995110
40.731600 -73.994780
40.734530 -73.992260
40.790470 -73.953880
40.790180 -73.953240
40.729400 -73.994540
40.713690 -73.994580
40.714220 -73.994860
40.730100 -74.005470
40.730160 -74.006140
40.730220 -74.006850
40.729440 -74.005180
40.704880 -74.016390
40.704900 -74.016270
40.704910 -74.016220
40.704930 -74.016100
40.704940 -74.015830
40.704940 -74.015670
40.704930 -74.015550
40.737720 -73.988150
40.739520 -73.986840
40.741470 -73.985420
40.782000 -73.951650
40.782680 -73.953260
40.783300 -73.954730
40.783410 -73.954990
40.784040 -73.956480
40.784710 -73.958090
40.803650 -73.969330
40.803560 -73.969120
40.802980 -73.967700
40.802890 -73.967500
40.801730 -73.964750
40.799950 -73.960510
40.799350 -73.959080
40.762970 -73.971850
40.762320 -73.970320
40.762230 -73.970100
40.761610 -73.968630
40.761240 -73.967760
40.760930 -73.967030
40.759980 -73.964790
40.759640 -73.964000
40.761040 -73.975370
40.760360 -73.973760
40.742300 -73.989010
40.741950 -73.989280
40.713780 -73.997750
40.706290 -74.014230
40.706350 -74.014140
40.706420 -74.014010
40.706510 -74.013880
40.706610 -74.013770
40.706700 -74.013690
40.706790 -74.013620
40.795980 -73.968950
40.796550 -73.970290
40.796620 -73.970460
40.797180 -73.971810
40.797880 -73.973460
40.735940 -73.976340
40.737230 -73.975370
40.708770 -73.999290
40.709470 -74.000130
40.709640 -74.000340
40.709960 -74.000730
40.710030 -74.000870
40.730340 -74.008200
40.730430 -74.009070
40.730540 -74.010410
40.730320 -74.004680
40.703200 -74.012570
40.703150 -74.012530
40.702800 -74.012340
40.753480 -73.980880
40.752800 -73.979280
40.752170 -73.977810
40.752070 -73.977560
40.751870 -73.977100
40.751430 -73.976050
40.750750 -73.974450
40.749800 -73.972210
40.748840 -73.969940
40.748740 -73.969710
40.742880 -73.977270
40.743820 -73.979500
40.778480 -73.985450
40.777380 -73.982770
40.777150 -73.982210
40.777050 -73.981990
40.776090 -73.979750
40.774900 -73.976910
40.770520 -73.980110
40.771350 -73.982040
40.771440 -73.982270
40.867380 -73.926400
40.867450 -73.926470
40.867910 -73.926940
40.706700 -74.002320
40.707210 -74.002740
40.707670 -74.003100
40.708000 -74.003360
40.708070 -74.003440
40.711230 -74.006470
40.725420 -73.996410
40.725270 -73.995810
40.725150 -73.995280
40.724500 -73.993430
40.724190 -73.992510
40.723810 -73.991250
40.723500 -73.990230
40.723000 -73.988630
40.735130 -74.006060
40.735300 -74.004860
40.735530 -74.003340
40.735760 -74.001770
40.735920 -74.000720
40.751840 -73.967310
40.751990 -73.967670
40.752950 -73.969910
40.753910 -73.972150
40.754590 -73.973750
40.755220 -73.975220
40.755310 -73.975430
40.755580 -73.976060
40.755970 -73.976960
40.856770 -73.934840
40.856800 -73.934830
40.856820 -73.934830
40.856840 -73.934830
40.856860 -73.934850
40.856880 -73.934870
40.856900 -73.934890
40.856920 -73.934920
40.856940 -73.934960
40.856950 -73.935000
40.856970 -73.935050
40.857100 -73.935600
40.855750 -73.931650
40.855420 -73.930870
40.854900 -73.929640
40.856500 -73.932760
40.856540 -73.932890
40.856760 -73.933610
40.856780 -73.933680
40.711430 -73.981930
40.711530 -73.980620
40.702840 -74.012020
40.702790 -74.012300
40.709760 -73.996380
40.709800 -73.996120
40.702950 -74.011500
40.863410 -73.930010
40.863320 -73.928990
40.863580 -73.928280
40.805670 -73.936470
40.804990 -73.934870
40.787230 -73.954150
40.724690 -73.978420
40.723680 -73.976030
40.730950 -73.993240
40.728150 -73.993720
40.727860 -73.993140
40.727050 -73.991470
40.726180 -73.989420
40.722280 -73.980170
40.721270 -73.977780
40.733140 -74.010160
40.733400 -74.008550
40.733580 -74.007340
40.733740 -74.006290
40.827670 -73.951320
40.827160 -73.950090
40.827080 -73.949900
40.825900 -73.947100
40.825320 -73.945730
40.824700 -73.944260
40.822280 -73.938510
40.822340 -73.938660
40.771780 -73.977800
40.772350 -73.978590
40.772410 -73.978720
40.768850 -73.972230
40.768680 -73.971680
40.768530 -73.971320
40.711240 -73.992120
40.714370 -73.992810
40.713840 -73.992740
40.714670 -73.992850
40.714350 -73.993040
40.713820 -73.992970
40.724180 -73.973510
40.722990 -73.974250
40.722580 -73.974480
40.722110 -73.974670
40.721760 -73.974750
40.721610 -73.974770
40.721260 -73.974800
40.721110 -73.974820
40.720760 -73.974920
40.720160 -73.974970
40.753350 -73.966530
40.776210 -73.975950
40.777400 -73.978800
40.778590 -73.981640
40.740140 -73.976160
40.739030 -73.973560
40.791840 -73.935550
40.720430 -73.999860
40.721420 -73.999030
40.722660 -73.997980
40.723880 -73.996950
40.725160 -73.995900
40.726130 -73.995050
40.710410 -74.009470
40.818120 -73.960240
40.818130 -73.960250
40.816990 -73.957510
40.815730 -73.954530
40.815070 -73.952970
40.772230 -73.982310
40.772200 -73.982080
40.771150 -73.979650
40.774740 -73.988180
40.749720 -73.983620
40.749050 -73.982020
40.748390 -73.980530
40.748300 -73.980290
40.747680 -73.978780
40.747270 -73.977810
40.747010 -73.977180
40.799980 -73.944850
40.799350 -73.943380
40.799240 -73.943100
40.798610 -73.941620
40.797930 -73.940020
40.761950 -74.001060
40.762060 -74.000920
40.762540 -74.000300
40.866200 -73.928050
40.865930 -73.928240
40.865740 -73.928380
40.714930 -73.983330
40.821430 -73.950360
40.822610 -73.953160
40.822690 -73.953350
40.823540 -73.955380
40.774250 -73.945260
40.775240 -73.947620
40.776190 -73.949870
40.729980 -74.000490
40.730580 -74.001680
40.722340 -73.993200
40.722380 -73.993320
40.722720 -73.994150
40.723680 -73.996470
40.725630 -74.000620
40.725770 -74.000890
40.726110 -74.001590
40.754170 -73.984590
40.755030 -73.986630
40.755370 -73.987440
40.820080 -73.955010
40.812970 -73.938170
40.814100 -73.940850
40.815270 -73.943640
40.815330 -73.943780
40.816500 -73.946540
40.817110 -73.948000
40.728600 -74.005310
40.849510 -73.939920
40.850120 -73.939660
40.851090 -73.939270
40.851170 -73.939230
40.848830 -73.940140
40.848010 -73.940430
40.777340 -73.988510
40.777480 -73.988840
40.854200 -73.931790
40.853680 -73.930530
40.852480 -73.927680
40.786800 -73.945230
40.785790 -73.942850
40.789050 -73.950540
40.788420 -73.949060
40.787750 -73.947460
40.849890 -73.929580
40.849940 -73.929710
40.850080 -73.930040
40.850360 -73.930700
40.851090 -73.932430
